svm_type c_svc
kernel_type poly
gamma 1.0
degree 3.0
coef0 1.0
nr_class 2
total_sv 12
rho 2.2211163504019455
label -1 1
nr_sv 6 6
SV
100.0 1:0.397959183673469 2:-0.23469387755102
25.536172236693364 1:-0.316326530612245 2:-0.214285714285714
100.0 1:0.336734693877551 2:-0.0306122448979592
13.258219939684764 1:-0.214285714285714 2:0.13265306122449
51.52745021477984 1:0.214285714285714 2:0.193877551020408
100.0 1:-0.0510204081632653 2:0.255102040816326
-62.09942479850561 1:0.418367346938776 2:-0.397959183673469
-9.326182753488883 1:0.275510204081633 2:-0.0918367346938775
-100.0 1:0.214285714285714 2:0.0102040816326531
-100.0 1:0.214285714285714 2:0.0714285714285714
-18.896234839163455 1:0.0510204081632653 2:0.13265306122449
-100.0 1:-0.0306122448979592 2:0.173469387755102
