svm_type c_svc
kernel_type rbf
gamma 3.0
degree 3.0
coef0 0.0
nr_class 2
total_sv 9
rho -3.535059914921045
label -1 1
nr_sv 5 4
SV
65.68405394097582 1:0.397959183673469 2:-0.23469387755102
10.614956257991514 1:-0.295918367346939 2:-0.0918367346938775
5.973695295739111 1:-0.214285714285714 2:0.13265306122449
50.07368175499451 1:0.214285714285714 2:0.193877551020408
31.600778788239456 1:-0.0510204081632653 2:0.255102040816326
-2.8208823601904314 1:-0.214285714285714 2:-0.397959183673469
-45.783139370671364 1:0.418367346938776 2:-0.397959183673469
-69.05481826530162 1:0.214285714285714 2:0.0714285714285714
-46.28832604177694 1:-0.0306122448979592 2:0.173469387755102
