svm_type c_svc
kernel_type linear
gamma 1.0
degree 3.0
coef0 0.0
nr_class 2
total_sv 28
rho -0.09455072967018495
label -1 1
nr_sv 12 16
SV
0.05543709927112866 1:0.0 2:0.0 3:0.0 4:0.0 5:0.0 6:0.0 7:0.0 8:0.0 9:0.0 10:0.0 11:0.0 12:0.0 13:0.0 14:0.0 15:0.0 16:0.0 17:0.0 18:0.0 19:0.0 20:0.0 21:0.0 22:0.0 23:0.0 24:0.0 25:0.0 26:0.0 27:0.0 28:0.0 29:0.0 30:0.0 31:0.0 32:0.0 33:0.0 34:0.0 35:0.0 36:0.0 37:0.0 38:0.0 39:0.0 40:0.0 41:0.0 42:0.0 43:0.0 44:0.0 45:0.0 46:0.0 47:0.0 48:0.0 49:0.0 50:0.0 51:0.0 52:0.0 53:0.0 54:0.0 55:0.0 56:0.0 57:0.0 58:0.0 59:0.0 60:0.0 61:0.0 62:0.0 63:0.0 64:0.0 65:0.0 66:0.0 67:0.0 68:0.0 69:0.0 70:0.0 71:0.0 72:0.0 73:0.0 74:0.0 75:0.0 76:0.0 77:0.0 78:0.0 79:0.0 80:0.0 81:0.0 82:0.0 83:0.0 84:0.0 85:0.0 86:0.0 87:0.0 88:0.0 89:0.0 90:0.0 91:0.0 92:0.0 93:0.0 94:0.0 95:0.0 96:0.0 97:0.0 98:0.0 99:0.0 100:0.0 101:0.0 102:0.0 103:0.0 104:0.0 105:0.0 106:0.0 107:0.0 108:0.0 109:0.0 110:0.0 111:0.0 112:0.0 113:0.0 114:0.0 115:0.0 116:0.0 117:0.0 118:0.0 119:0.0 120:0.0 121:0.0 122:0.0 123:0.0 124:0.0 125:0.0 126:0.0 127:0.0 128:0.0 129:0.0 130:0.0 131:0.0 132:0.0 133:0.0 134:0.0 135:0.0 136:0.0 137:0.0 138:0.0 139:0.0 140:0.0 141:0.0 142:0.0 143:0.0 144:0.0 145:0.0 146:0.0 147:0.0 148:0.0 149:0.0 150:0.0 151:0.0 152:0.0 153:0.0 154:0.0 155:0.0 156:0.0 157:0.4666666666666667 158:0.596078431372549 159:0.0 160:0.0 161:0.0 162:0.0 163:0.0 164:0.0 165:0.0 166:0.0 167:0.0 168:0.0 169:0.0 170:0.0 171:0.0 172:0.0 173:0.0 174:0.0 175:0.0 176:0.0 177:0.0 178:0.0 179:0.0 180:0.0 181:0.0 182:0.0 183:0.0 184:0.0196078431372549 185:0.7725490196078432 186:0.7254901960784313 187:0.0 188:0.0 189:0.0 190:0.0 191:0.0 192:0.0 193:0.0 194:0.0 195:0.0 196:0.0 197:0.0 198:0.0 199:0.0 200:0.0 201:0.0 202:0.0 203:0.0 204:0.0 205:0.0 206:0.0 207:0.0 208:0.0 209:0.0 210:0.0 211:0.0 212:0.09411764705882353 213:0.996078431372549 214:0.7254901960784313 215:0.0 216:0.0 217:0.0 218:0.0 219:0.0 220:0.0 221:0.0 222:0.0 223:0.0 224:0.0 225:0.0 226:0.0 227:0.0 228:0.0 229:0.0 230:0.0 231:0.0 232:0.0 233:0.0 234:0.0 235:0.0 236:0.0 237:0.0 238:0.0 239:0.0 240:0.09411764705882353 241:0.996078431372549 242:0.592156862745098 243:0.0 244:0.0 245:0.0 246:0.0 247:0.0 248:0.0 249:0.0 250:0.0 251:0.0 252:0.0 253:0.0 254:0.0 255:0.0 256:0.0 257:0.0 258:0.0 259:0.0 260:0.0 261:0.0 262:0.0 263:0.0 264:0.0 265:0.0 266:0.0 267:0.0 268:0.3254901960784314 269:1.0 270:0.13333333333333333 271:0.0 272:0.0 273:0.0 274:0.0 275:0.0 276:0.0 277:0.0 278:0.0 279:0.0 280:0.0 281:0.0 282:0.0 283:0.0 284:0.0 285:0.0 286:0.0 287:0.0 288:0.0 289:0.0 290:0.0 291:0.0 292:0.0 293:0.0 294:0.0 295:0.0 296:0.5176470588235295 297:0.996078431372549 298:0.0 299:0.0 300:0.0 301:0.0 302:0.0 303:0.0 304:0.0 305:0.0 306:0.0 307:0.0 308:0.0 309:0.0 310:0.0 311:0.0 312:0.0 313:0.0 314:0.0 315:0.0 316:0.0 317:0.0 318:0.0 319:0.0 320:0.0 321:0.0 322:0.0 323:0.15294117647058825 324:0.9607843137254902 325:0.6627450980392157 326:0.0 327:0.0 328:0.0 329:0.0 330:0.0 331:0.0 332:0.0 333:0.0 334:0.0 335:0.0 336:0.0 337:0.0 338:0.0 339:0.0 340:0.0 341:0.0 342:0.0 343:0.0 344:0.0 345:0.0 346:0.0 347:0.0 348:0.0 349:0.0 350:0.0 351:0.1843137254901961 352:0.996078431372549 353:0.27058823529411763 354:0.0 355:0.0 356:0.0 357:0.0 358:0.0 359:0.0 360:0.0 361:0.0 362:0.0 363:0.0 364:0.0 365:0.0 366:0.0 367:0.0 368:0.0 369:0.0 370:0.0 371:0.0 372:0.0 373:0.0 374:0.0 375:0.0 376:0.0 377:0.0 378:0.0 379:0.6431372549019608 380:0.9058823529411765 381:0.0 382:0.0 383:0.0 384:0.0 385:0.0 386:0.0 387:0.0 388:0.0 389:0.0 390:0.0 391:0.0 392:0.0 393:0.0 394:0.0 395:0.0 396:0.0 397:0.0 398:0.0 399:0.0 400:0.0 401:0.0 402:0.0 403:0.0 404:0.0 405:0.0 406:0.15294117647058825 407:0.9568627450980393 408:0.7058823529411765 409:0.0 410:0.0 411:0.0 412:0.0 413:0.0 414:0.0 415:0.0 416:0.0 417:0.0 418:0.0 419:0.0 420:0.0 421:0.0 422:0.0 423:0.0 424:0.0 425:0.0 426:0.0 427:0.0 428:0.0 429:0.0 430:0.0 431:0.0 432:0.0 433:0.0 434:0.27450980392156865 435:0.9764705882352941 436:0.22745098039215686 437:0.0 438:0.0 439:0.0 440:0.0 441:0.0 442:0.0 443:0.0 444:0.0 445:0.0 446:0.0 447:0.0 448:0.0 449:0.0 450:0.0 451:0.0 452:0.0 453:0.0 454:0.0 455:0.0 456:0.0 457:0.0 458:0.0 459:0.0 460:0.0 461:0.0 462:0.5372549019607843 463:0.8117647058823529 464:0.0 465:0.0 466:0.0 467:0.0 468:0.0 469:0.0 470:0.0 471:0.0 472:0.0 473:0.0 474:0.0 475:0.0 476:0.0 477:0.0 478:0.0 479:0.0 480:0.0 481:0.0 482:0.0 483:0.0 484:0.0 485:0.0 486:0.0 487:0.0 488:0.0 489:0.0 490:0.8705882352941177 491:0.8156862745098039 492:0.0 493:0.0 494:0.0 495:0.0 496:0.0 497:0.0 498:0.0 499:0.0 500:0.0 501:0.0 502:0.0 503:0.0 504:0.0 505:0.0 506:0.0 507:0.0 508:0.0 509:0.0 510:0.0 511:0.0 512:0.0 513:0.0 514:0.0 515:0.0 516:0.0 517:0.0 518:0.996078431372549 519:0.48627450980392156 520:0.0 521:0.0 522:0.0 523:0.0 524:0.0 525:0.0 526:0.0 527:0.0 528:0.0 529:0.0 530:0.0 531:0.0 532:0.0 533:0.0 534:0.0 535:0.0 536:0.0 537:0.0 538:0.0 539:0.0 540:0.0 541:0.0 542:0.0 543:0.0 544:0.0 545:0.30196078431372547 546:0.996078431372549 547:0.15294117647058825 548:0.0 549:0.0 550:0.0 551:0.0 552:0.0 553:0.0 554:0.0 555:0.0 556:0.0 557:0.0 558:0.0 559:0.0 560:0.0 561:0.0 562:0.0 563:0.0 564:0.0 565:0.0 566:0.0 567:0.0 568:0.0 569:0.0 570:0.0 571:0.0 572:0.0 573:0.36470588235294116 574:0.8980392156862745 575:0.058823529411764705 576:0.0 577:0.0 578:0.0 579:0.0 580:0.0 581:0.0 582:0.0 583:0.0 584:0.0 585:0.0 586:0.0 587:0.0 588:0.0 589:0.0 590:0.0 591:0.0 592:0.0 593:0.0 594:0.0 595:0.0 596:0.0 597:0.0 598:0.0 599:0.0 600:0.0 601:0.4666666666666667 602:0.7294117647058823 603:0.0 604:0.0 605:0.0 606:0.0 607:0.0 608:0.0 609:0.0 610:0.0 611:0.0 612:0.0 613:0.0 614:0.0 615:0.0 616:0.0 617:0.0 618:0.0 619:0.0 620:0.0 621:0.0 622:0.0 623:0.0 624:0.0 625:0.0 626:0.0 627:0.0 628:0.0 629:0.7254901960784313 630:0.7254901960784313 631:0.0 632:0.0 633:0.0 634:0.0 635:0.0 636:0.0 637:0.0 638:0.0 639:0.0 640:0.0 641:0.0 642:0.0 643:0.0 644:0.0 645:0.0 646:0.0 647:0.0 648:0.0 649:0.0 650:0.0 651:0.0 652:0.0 653:0.0 654:0.0 655:0.0 656:0.0 657:0.7254901960784313 658:0.6901960784313725 659:0.0 660:0.0 661:0.0 662:0.0 663:0.0 664:0.0 665:0.0 666:0.0 667:0.0 668:0.0 669:0.0 670:0.0 671:0.0 672:0.0 673:0.0 674:0.0 675:0.0 676:0.0 677:0.0 678:0.0 679:0.0 680:0.0 681:0.0 682:0.0 683:0.0 684:0.0 685:0.7254901960784313 686:0.36470588235294116 687:0.0 688:0.0 689:0.0 690:0.0 691:0.0 692:0.0 693:0.0 694:0.0 695:0.0 696:0.0 697:0.0 698:0.0 699:0.0 700:0.0 701:0.0 702:0.0 703:0.0 704:0.0 705:0.0 706:0.0 707:0.0 708:0.0 709:0.0 710:0.0 711:0.0 712:0.0 713:0.0 714:0.0 715:0.0 716:0.0 717:0.0 718:0.0 719:0.0 720:0.0 721:0.0 722:0.0 723:0.0 724:0.0 725:0.0 726:0.0 727:0.0 728:0.0 729:0.0 730:0.0 731:0.0 732:0.0 733:0.0 734:0.0 735:0.0 736:0.0 737:0.0 738:0.0 739:0.0 740:0.0 741:0.0 742:0.0 743:0.0 744:0.0 745:0.0 746:0.0 747:0.0 748:0.0 749:0.0 750:0.0 751:0.0 752:0.0 753:0.0 754:0.0 755:0.0 756:0.0 757:0.0 758:0.0 759:0.0 760:0.0 761:0.0 762:0.0 763:0.0 764:0.0 765:0.0 766:0.0 767:0.0 768:0.0 769:0.0 770:0.0 771:0.0 772:0.0 773:0.0 774:0.0 775:0.0 776:0.0 777:0.0 778:0.0 779:0.0 780:0.0 781:0.0 782:0.0 783:0.0 784:0.0
0.016854010253719163 1:0.0 2:0.0 3:0.0 4:0.0 5:0.0 6:0.0 7:0.0 8:0.0 9:0.0 10:0.0 11:0.0 12:0.0 13:0.0 14:0.0 15:0.0 16:0.0 17:0.0 18:0.0 19:0.0 20:0.0 21:0.0 22:0.0 23:0.0 24:0.0 25:0.0 26:0.0 27:0.0 28:0.0 29:0.0 30:0.0 31:0.0 32:0.0 33:0.0 34:0.0 35:0.0 36:0.0 37:0.0 38:0.0 39:0.0 40:0.0 41:0.0 42:0.0 43:0.0 44:0.0 45:0.0 46:0.0 47:0.0 48:0.0 49:0.0 50:0.0 51:0.0 52:0.0 53:0.0 54:0.0 55:0.0 56:0.0 57:0.0 58:0.0 59:0.0 60:0.0 61:0.0 62:0.0 63:0.0 64:0.0 65:0.0 66:0.0 67:0.0 68:0.0 69:0.0 70:0.0 71:0.0 72:0.0 73:0.0 74:0.0 75:0.0 76:0.0 77:0.0 78:0.0 79:0.0 80:0.0 81:0.0 82:0.0 83:0.0 84:0.0 85:0.0 86:0.0 87:0.0 88:0.0 89:0.0 90:0.0 91:0.0 92:0.0 93:0.0 94:0.0 95:0.0 96:0.0 97:0.0 98:0.0 99:0.0 100:0.0 101:0.0 102:0.0 103:0.0 104:0.0 105:0.0 106:0.0 107:0.0 108:0.0 109:0.0 110:0.0 111:0.0 112:0.0 113:0.0 114:0.0 115:0.0 116:0.0 117:0.0 118:0.0 119:0.0 120:0.0 121:0.0 122:0.0 123:0.0 124:0.0 125:0.0 126:0.0 127:0.0 128:0.0 129:0.0 130:0.4549019607843137 131:1.0 132:0.4823529411764706 133:0.0 134:0.0 135:0.0 136:0.0 137:0.0 138:0.0 139:0.0 140:0.0 141:0.0 142:0.0 143:0.0 144:0.0 145:0.0 146:0.0 147:0.0 148:0.0 149:0.0 150:0.0 151:0.0 152:0.0 153:0.0 154:0.0 155:0.0 156:0.0 157:0.11372549019607843 158:0.8352941176470589 159:0.9921568627450981 160:0.47843137254901963 161:0.0 162:0.0 163:0.0 164:0.0 165:0.0 166:0.0 167:0.0 168:0.0 169:0.0 170:0.0 171:0.0 172:0.0 173:0.0 174:0.0 175:0.0 176:0.0 177:0.0 178:0.0 179:0.0 180:0.0 181:0.0 182:0.0 183:0.0 184:0.0 185:0.7411764705882353 186:0.9921568627450981 187:0.9921568627450981 188:0.47843137254901963 189:0.0 190:0.0 191:0.0 192:0.0 193:0.0 194:0.0 195:0.0 196:0.0 197:0.0 198:0.0 199:0.0 200:0.0 201:0.0 202:0.0 203:0.0 204:0.0 205:0.0 206:0.0 207:0.0 208:0.0 209:0.0 210:0.0 211:0.0 212:0.0 213:0.7411764705882353 214:0.9921568627450981 215:0.9921568627450981 216:0.47843137254901963 217:0.0 218:0.0 219:0.0 220:0.0 221:0.0 222:0.0 223:0.0 224:0.0 225:0.0 226:0.0 227:0.0 228:0.0 229:0.0 230:0.0 231:0.0 232:0.0 233:0.0 234:0.0 235:0.0 236:0.0 237:0.0 238:0.0 239:0.0 240:0.0 241:0.7411764705882353 242:0.9921568627450981 243:0.9921568627450981 244:0.47843137254901963 245:0.0 246:0.0 247:0.0 248:0.0 249:0.0 250:0.0 251:0.0 252:0.0 253:0.0 254:0.0 255:0.0 256:0.0 257:0.0 258:0.0 259:0.0 260:0.0 261:0.0 262:0.0 263:0.0 264:0.0 265:0.0 266:0.0 267:0.00784313725490196 268:0.4470588235294118 269:0.9529411764705882 270:0.9921568627450981 271:0.7294117647058823 272:0.07450980392156863 273:0.0 274:0.0 275:0.0 276:0.0 277:0.0 278:0.0 279:0.0 280:0.0 281:0.0 282:0.0 283:0.0 284:0.0 285:0.0 286:0.0 287:0.0 288:0.0 289:0.0 290:0.0 291:0.0 292:0.0 293:0.0 294:0.0 295:0.39215686274509803 296:0.9921568627450981 297:0.9921568627450981 298:0.9921568627450981 299:0.18823529411764706 300:0.0 301:0.0 302:0.0 303:0.0 304:0.0 305:0.0 306:0.0 307:0.0 308:0.0 309:0.0 310:0.0 311:0.0 312:0.0 313:0.0 314:0.0 315:0.0 316:0.0 317:0.0 318:0.0 319:0.0 320:0.0 321:0.0 322:0.0 323:0.6745098039215687 324:0.9921568627450981 325:0.9921568627450981 326:0.9921568627450981 327:0.18823529411764706 328:0.0 329:0.0 330:0.0 331:0.0 332:0.0 333:0.0 334:0.0 335:0.0 336:0.0 337:0.0 338:0.0 339:0.0 340:0.0 341:0.0 342:0.0 343:0.0 344:0.0 345:0.0 346:0.0 347:0.0 348:0.0 349:0.0 350:0.0 351:0.6745098039215687 352:0.9921568627450981 353:0.9921568627450981 354:0.7137254901960784 355:0.07450980392156863 356:0.0 357:0.0 358:0.0 359:0.0 360:0.0 361:0.0 362:0.0 363:0.0 364:0.0 365:0.0 366:0.0 367:0.0 368:0.0 369:0.0 370:0.0 371:0.0 372:0.0 373:0.0 374:0.0 375:0.0 376:0.0 377:0.0 378:0.5215686274509804 379:0.984313725490196 380:0.9921568627450981 381:0.6862745098039216 382:0.01568627450980392 383:0.0 384:0.0 385:0.0 386:0.0 387:0.0 388:0.0 389:0.0 390:0.0 391:0.0 392:0.0 393:0.0 394:0.0 395:0.0 396:0.0 397:0.0 398:0.0 399:0.0 400:0.0 401:0.0 402:0.0 403:0.0 404:0.0 405:0.4196078431372549 406:0.984313725490196 407:0.9921568627450981 408:0.9921568627450981 409:0.2549019607843137 410:0.0 411:0.0 412:0.0 413:0.0 414:0.0 415:0.0 416:0.0 417:0.0 418:0.0 419:0.0 420:0.0 421:0.0 422:0.0 423:0.0 424:0.0 425:0.0 426:0.0 427:0.0 428:0.0 429:0.0 430:0.0 431:0.0 432:0.10196078431372549 433:0.7607843137254902 434:0.9921568627450981 435:0.9921568627450981 436:0.8392156862745098 437:0.1568627450980392 438:0.0 439:0.0 440:0.0 441:0.0 442:0.0 443:0.0 444:0.0 445:0.0 446:0.0 447:0.0 448:0.0 449:0.0 450:0.0 451:0.0 452:0.0 453:0.0 454:0.0 455:0.0 456:0.0 457:0.0 458:0.0 459:0.4117647058823529 460:0.803921568627451 461:0.9921568627450981 462:0.9921568627450981 463:0.49019607843137253 464:0.1568627450980392 465:0.0 466:0.0 467:0.0 468:0.0 469:0.0 470:0.0 471:0.0 472:0.0 473:0.0 474:0.0 475:0.0 476:0.0 477:0.0 478:0.0 479:0.0 480:0.0 481:0.0 482:0.0 483:0.0 484:0.0 485:0.0 486:0.0 487:0.5450980392156862 488:0.9921568627450981 489:0.9921568627450981 490:0.9921568627450981 491:0.3176470588235294 492:0.0 493:0.0 494:0.0 495:0.0 496:0.0 497:0.0 498:0.0 499:0.0 500:0.0 501:0.0 502:0.0 503:0.0 504:0.0 505:0.0 506:0.0 507:0.0 508:0.0 509:0.0 510:0.0 511:0.0 512:0.0 513:0.0 514:0.1607843137254902 515:0.9058823529411765 516:0.9921568627450981 517:0.9921568627450981 518:0.6235294117647059 519:0.06274509803921569 520:0.0 521:0.0 522:0.0 523:0.0 524:0.0 525:0.0 526:0.0 527:0.0 528:0.0 529:0.0 530:0.0 531:0.0 532:0.0 533:0.0 534:0.0 535:0.0 536:0.0 537:0.0 538:0.0 539:0.0 540:0.0 541:0.2549019607843137 542:0.6078431372549019 543:0.9921568627450981 544:0.9921568627450981 545:0.6745098039215687 546:0.01568627450980392 547:0.0 548:0.0 549:0.0 550:0.0 551:0.0 552:0.0 553:0.0 554:0.0 555:0.0 556:0.0 557:0.0 558:0.0 559:0.0 560:0.0 561:0.0 562:0.0 563:0.0 564:0.0 565:0.0 566:0.0 567:0.0 568:0.0 569:0.48627450980392156 570:0.9921568627450981 571:0.9921568627450981 572:0.9921568627450981 573:0.3843137254901961 574:0.0 575:0.0 576:0.0 577:0.0 578:0.0 579:0.0 580:0.0 581:0.0 582:0.0 583:0.0 584:0.0 585:0.0 586:0.0 587:0.0 588:0.0 589:0.0 590:0.0 591:0.0 592:0.0 593:0.0 594:0.0 595:0.0 596:0.0 597:0.48627450980392156 598:0.9921568627450981 599:0.9921568627450981 600:0.8392156862745098 601:0.1607843137254902 602:0.0 603:0.0 604:0.0 605:0.0 606:0.0 607:0.0 608:0.0 609:0.0 610:0.0 611:0.0 612:0.0 613:0.0 614:0.0 615:0.0 616:0.0 617:0.0 618:0.0 619:0.0 620:0.0 621:0.0 622:0.0 623:0.0 624:0.08627450980392157 625:0.8117647058823529 626:0.9921568627450981 627:0.9921568627450981 628:0.5450980392156862 629:0.0 630:0.0 631:0.0 632:0.0 633:0.0 634:0.0 635:0.0 636:0.0 637:0.0 638:0.0 639:0.0 640:0.0 641:0.0 642:0.0 643:0.0 644:0.0 645:0.0 646:0.0 647:0.0 648:0.0 649:0.0 650:0.0 651:0.0 652:0.0 653:0.48627450980392156 654:0.9921568627450981 655:0.6352941176470588 656:0.03529411764705882 657:0.0 658:0.0 659:0.0 660:0.0 661:0.0 662:0.0 663:0.0 664:0.0 665:0.0 666:0.0 667:0.0 668:0.0 669:0.0 670:0.0 671:0.0 672:0.0 673:0.0 674:0.0 675:0.0 676:0.0 677:0.0 678:0.0 679:0.0 680:0.0 681:0.0 682:0.0 683:0.0 684:0.0 685:0.0 686:0.0 687:0.0 688:0.0 689:0.0 690:0.0 691:0.0 692:0.0 693:0.0 694:0.0 695:0.0 696:0.0 697:0.0 698:0.0 699:0.0 700:0.0 701:0.0 702:0.0 703:0.0 704:0.0 705:0.0 706:0.0 707:0.0 708:0.0 709:0.0 710:0.0 711:0.0 712:0.0 713:0.0 714:0.0 715:0.0 716:0.0 717:0.0 718:0.0 719:0.0 720:0.0 721:0.0 722:0.0 723:0.0 724:0.0 725:0.0 726:0.0 727:0.0 728:0.0 729:0.0 730:0.0 731:0.0 732:0.0 733:0.0 734:0.0 735:0.0 736:0.0 737:0.0 738:0.0 739:0.0 740:0.0 741:0.0 742:0.0 743:0.0 744:0.0 745:0.0 746:0.0 747:0.0 748:0.0 749:0.0 750:0.0 751:0.0 752:0.0 753:0.0 754:0.0 755:0.0 756:0.0 757:0.0 758:0.0 759:0.0 760:0.0 761:0.0 762:0.0 763:0.0 764:0.0 765:0.0 766:0.0 767:0.0 768:0.0 769:0.0 770:0.0 771:0.0 772:0.0 773:0.0 774:0.0 775:0.0 776:0.0 777:0.0 778:0.0 779:0.0 780:0.0 781:0.0 782:0.0 783:0.0 784:0.0
0.04010676681564354 1:0.0 2:0.0 3:0.0 4:0.0 5:0.0 6:0.0 7:0.0 8:0.0 9:0.0 10:0.0 11:0.0 12:0.0 13:0.0 14:0.0 15:0.0 16:0.0 17:0.0 18:0.0 19:0.0 20:0.0 21:0.0 22:0.0 23:0.0 24:0.0 25:0.0 26:0.0 27:0.0 28:0.0 29:0.0 30:0.0 31:0.0 32:0.0 33:0.0 34:0.0 35:0.0 36:0.0 37:0.0 38:0.0 39:0.0 40:0.0 41:0.0 42:0.0 43:0.0 44:0.0 45:0.0 46:0.0 47:0.0 48:0.0 49:0.0 50:0.0 51:0.0 52:0.0 53:0.0 54:0.0 55:0.0 56:0.0 57:0.0 58:0.0 59:0.0 60:0.0 61:0.0 62:0.0 63:0.0 64:0.0 65:0.0 66:0.0 67:0.0 68:0.0 69:0.0 70:0.0 71:0.0 72:0.0 73:0.0 74:0.0 75:0.0 76:0.0 77:0.0 78:0.0 79:0.0 80:0.0 81:0.0 82:0.0 83:0.0 84:0.0 85:0.0 86:0.0 87:0.0 88:0.0 89:0.0 90:0.0 91:0.0 92:0.0 93:0.0 94:0.0 95:0.0 96:0.0 97:0.0 98:0.0 99:0.0 100:0.0 101:0.0 102:0.0 103:0.0 104:0.0 105:0.0 106:0.0 107:0.0 108:0.0 109:0.0 110:0.0 111:0.0 112:0.0 113:0.0 114:0.0 115:0.0 116:0.0 117:0.0 118:0.0 119:0.0 120:0.0 121:0.0 122:0.0 123:0.0 124:0.0 125:0.0 126:0.0 127:0.0 128:0.0 129:0.0 130:0.8549019607843137 131:0.6666666666666666 132:0.4235294117647059 133:0.0 134:0.0 135:0.0 136:0.0 137:0.0 138:0.0 139:0.0 140:0.0 141:0.0 142:0.0 143:0.0 144:0.0 145:0.0 146:0.0 147:0.0 148:0.0 149:0.0 150:0.0 151:0.0 152:0.0 153:0.0 154:0.0 155:0.0 156:0.0 157:0.12549019607843137 158:0.8901960784313725 159:0.9882352941176471 160:0.9098039215686274 161:0.0 162:0.0 163:0.0 164:0.0 165:0.0 166:0.0 167:0.0 168:0.0 169:0.0 170:0.0 171:0.0 172:0.0 173:0.0 174:0.0 175:0.0 176:0.0 177:0.0 178:0.0 179:0.0 180:0.0 181:0.0 182:0.0 183:0.0 184:0.0 185:0.5058823529411764 186:0.9882352941176471 187:0.9882352941176471 188:0.9882352941176471 189:0.0 190:0.0 191:0.0 192:0.0 193:0.0 194:0.0 195:0.0 196:0.0 197:0.0 198:0.0 199:0.0 200:0.0 201:0.0 202:0.0 203:0.0 204:0.0 205:0.0 206:0.0 207:0.0 208:0.0 209:0.0 210:0.0 211:0.0 212:0.00392156862745098 213:0.9921568627450981 214:0.9882352941176471 215:0.9882352941176471 216:0.6588235294117647 217:0.0 218:0.0 219:0.0 220:0.0 221:0.0 222:0.0 223:0.0 224:0.0 225:0.0 226:0.0 227:0.0 228:0.0 229:0.0 230:0.0 231:0.0 232:0.0 233:0.0 234:0.0 235:0.0 236:0.0 237:0.0 238:0.0 239:0.0 240:0.5647058823529412 241:0.9921568627450981 242:0.9882352941176471 243:0.9254901960784314 244:0.24313725490196078 245:0.0 246:0.0 247:0.0 248:0.0 249:0.0 250:0.0 251:0.0 252:0.0 253:0.0 254:0.0 255:0.0 256:0.0 257:0.0 258:0.0 259:0.0 260:0.0 261:0.0 262:0.0 263:0.0 264:0.0 265:0.0 266:0.0 267:0.0 268:0.5647058823529412 269:0.9921568627450981 270:0.9882352941176471 271:0.8431372549019608 272:0.0 273:0.0 274:0.0 275:0.0 276:0.0 277:0.0 278:0.0 279:0.0 280:0.0 281:0.0 282:0.0 283:0.0 284:0.0 285:0.0 286:0.0 287:0.0 288:0.0 289:0.0 290:0.0 291:0.0 292:0.0 293:0.0 294:0.0 295:0.0 296:0.5647058823529412 297:0.9921568627450981 298:0.9882352941176471 299:0.4392156862745098 300:0.0 301:0.0 302:0.0 303:0.0 304:0.0 305:0.0 306:0.0 307:0.0 308:0.0 309:0.0 310:0.0 311:0.0 312:0.0 313:0.0 314:0.0 315:0.0 316:0.0 317:0.0 318:0.0 319:0.0 320:0.0 321:0.0 322:0.0 323:0.08235294117647059 324:0.807843137254902 325:0.9921568627450981 326:0.9882352941176471 327:0.2784313725490196 328:0.0 329:0.0 330:0.0 331:0.0 332:0.0 333:0.0 334:0.0 335:0.0 336:0.0 337:0.0 338:0.0 339:0.0 340:0.0 341:0.0 342:0.0 343:0.0 344:0.0 345:0.0 346:0.0 347:0.0 348:0.0 349:0.0 350:0.0 351:0.38823529411764707 352:0.9921568627450981 353:1.0 354:0.4666666666666667 355:0.0 356:0.0 357:0.0 358:0.0 359:0.0 360:0.0 361:0.0 362:0.0 363:0.0 364:0.0 365:0.0 366:0.0 367:0.0 368:0.0 369:0.0 370:0.0 371:0.0 372:0.0 373:0.0 374:0.0 375:0.0 376:0.0 377:0.0 378:0.24705882352941178 379:0.9490196078431372 380:0.9882352941176471 381:0.9921568627450981 382:0.13725490196078433 383:0.0 384:0.0 385:0.0 386:0.0 387:0.0 388:0.0 389:0.0 390:0.0 391:0.0 392:0.0 393:0.0 394:0.0 395:0.0 396:0.0 397:0.0 398:0.0 399:0.0 400:0.0 401:0.0 402:0.0 403:0.0 404:0.0 405:0.0 406:0.3686274509803922 407:0.9882352941176471 408:0.9882352941176471 409:0.6039215686274509 410:0.0392156862745098 411:0.0 412:0.0 413:0.0 414:0.0 415:0.0 416:0.0 417:0.0 418:0.0 419:0.0 420:0.0 421:0.0 422:0.0 423:0.0 424:0.0 425:0.0 426:0.0 427:0.0 428:0.0 429:0.0 430:0.0 431:0.0 432:0.0 433:0.5686274509803921 434:0.9294117647058824 435:0.9882352941176471 436:0.9882352941176471 437:0.0 438:0.0 439:0.0 440:0.0 441:0.0 442:0.0 443:0.0 444:0.0 445:0.0 446:0.0 447:0.0 448:0.0 449:0.0 450:0.0 451:0.0 452:0.0 453:0.0 454:0.0 455:0.0 456:0.0 457:0.0 458:0.0 459:0.0 460:0.0 461:1.0 462:0.9921568627450981 463:0.9921568627450981 464:0.4235294117647059 465:0.0 466:0.0 467:0.0 468:0.0 469:0.0 470:0.0 471:0.0 472:0.0 473:0.0 474:0.0 475:0.0 476:0.0 477:0.0 478:0.0 479:0.0 480:0.0 481:0.0 482:0.0 483:0.0 484:0.0 485:0.0 486:0.0 487:0.043137254901960784 488:0.6078431372549019 489:0.9921568627450981 490:0.9882352941176471 491:0.7019607843137254 492:0.058823529411764705 493:0.0 494:0.0 495:0.0 496:0.0 497:0.0 498:0.0 499:0.0 500:0.0 501:0.0 502:0.0 503:0.0 504:0.0 505:0.0 506:0.0 507:0.0 508:0.0 509:0.0 510:0.0 511:0.0 512:0.0 513:0.0 514:0.043137254901960784 515:0.5882352941176471 516:0.9882352941176471 517:0.9921568627450981 518:0.7843137254901961 519:0.0784313725490196 520:0.0 521:0.0 522:0.0 523:0.0 524:0.0 525:0.0 526:0.0 527:0.0 528:0.0 529:0.0 530:0.0 531:0.0 532:0.0 533:0.0 534:0.0 535:0.0 536:0.0 537:0.0 538:0.0 539:0.0 540:0.0 541:0.0 542:0.28627450980392155 543:0.9882352941176471 544:0.9882352941176471 545:0.9921568627450981 546:0.3803921568627451 547:0.0 548:0.0 549:0.0 550:0.0 551:0.0 552:0.0 553:0.0 554:0.0 555:0.0 556:0.0 557:0.0 558:0.0 559:0.0 560:0.0 561:0.0 562:0.0 563:0.0 564:0.0 565:0.0 566:0.0 567:0.0 568:0.0 569:0.1843137254901961 570:0.9137254901960784 571:0.9921568627450981 572:0.9921568627450981 573:0.0 574:0.0 575:0.0 576:0.0 577:0.0 578:0.0 579:0.0 580:0.0 581:0.0 582:0.0 583:0.0 584:0.0 585:0.0 586:0.0 587:0.0 588:0.0 589:0.0 590:0.0 591:0.0 592:0.0 593:0.0 594:0.0 595:0.0 596:0.00392156862745098 597:0.5843137254901961 598:0.9882352941176471 599:0.9882352941176471 600:0.9882352941176471 601:0.0 602:0.0 603:0.0 604:0.0 605:0.0 606:0.0 607:0.0 608:0.0 609:0.0 610:0.0 611:0.0 612:0.0 613:0.0 614:0.0 615:0.0 616:0.0 617:0.0 618:0.0 619:0.0 620:0.0 621:0.0 622:0.0 623:0.0 624:0.00392156862745098 625:0.9882352941176471 626:0.9882352941176471 627:0.9647058823529412 628:0.5176470588235295 629:0.0 630:0.0 631:0.0 632:0.0 633:0.0 634:0.0 635:0.0 636:0.0 637:0.0 638:0.0 639:0.0 640:0.0 641:0.0 642:0.0 643:0.0 644:0.0 645:0.0 646:0.0 647:0.0 648:0.0 649:0.0 650:0.0 651:0.0 652:0.00392156862745098 653:0.6627450980392157 654:0.9882352941176471 655:0.5176470588235295 656:0.0 657:0.0 658:0.0 659:0.0 660:0.0 661:0.0 662:0.0 663:0.0 664:0.0 665:0.0 666:0.0 667:0.0 668:0.0 669:0.0 670:0.0 671:0.0 672:0.0 673:0.0 674:0.0 675:0.0 676:0.0 677:0.0 678:0.0 679:0.0 680:0.0 681:0.0 682:0.0 683:0.0 684:0.0 685:0.0 686:0.0 687:0.0 688:0.0 689:0.0 690:0.0 691:0.0 692:0.0 693:0.0 694:0.0 695:0.0 696:0.0 697:0.0 698:0.0 699:0.0 700:0.0 701:0.0 702:0.0 703:0.0 704:0.0 705:0.0 706:0.0 707:0.0 708:0.0 709:0.0 710:0.0 711:0.0 712:0.0 713:0.0 714:0.0 715:0.0 716:0.0 717:0.0 718:0.0 719:0.0 720:0.0 721:0.0 722:0.0 723:0.0 724:0.0 725:0.0 726:0.0 727:0.0 728:0.0 729:0.0 730:0.0 731:0.0 732:0.0 733:0.0 734:0.0 735:0.0 736:0.0 737:0.0 738:0.0 739:0.0 740:0.0 741:0.0 742:0.0 743:0.0 744:0.0 745:0.0 746:0.0 747:0.0 748:0.0 749:0.0 750:0.0 751:0.0 752:0.0 753:0.0 754:0.0 755:0.0 756:0.0 757:0.0 758:0.0 759:0.0 760:0.0 761:0.0 762:0.0 763:0.0 764:0.0 765:0.0 766:0.0 767:0.0 768:0.0 769:0.0 770:0.0 771:0.0 772:0.0 773:0.0 774:0.0 775:0.0 776:0.0 777:0.0 778:0.0 779:0.0 780:0.0 781:0.0 782:0.0 783:0.0 784:0.0
0.022802563310947585 1:0.0 2:0.0 3:0.0 4:0.0 5:0.0 6:0.0 7:0.0 8:0.0 9:0.0 10:0.0 11:0.0 12:0.0 13:0.0 14:0.0 15:0.0 16:0.0 17:0.0 18:0.0 19:0.0 20:0.0 21:0.0 22:0.0 23:0.0 24:0.0 25:0.0 26:0.0 27:0.0 28:0.0 29:0.0 30:0.0 31:0.0 32:0.0 33:0.0 34:0.0 35:0.0 36:0.0 37:0.0 38:0.0 39:0.0 40:0.0 41:0.0 42:0.0 43:0.0 44:0.0 45:0.0 46:0.0 47:0.0 48:0.0 49:0.0 50:0.0 51:0.0 52:0.0 53:0.0 54:0.0 55:0.0 56:0.0 57:0.0 58:0.0 59:0.0 60:0.0 61:0.0 62:0.0 63:0.0 64:0.0 65:0.0 66:0.0 67:0.0 68:0.0 69:0.0 70:0.0 71:0.0 72:0.0 73:0.0 74:0.0 75:0.0 76:0.0 77:0.0 78:0.0 79:0.0 80:0.0 81:0.0 82:0.0 83:0.0 84:0.0 85:0.0 86:0.0 87:0.0 88:0.0 89:0.0 90:0.0 91:0.0 92:0.0 93:0.0 94:0.0 95:0.0 96:0.0 97:0.0 98:0.0 99:0.0 100:0.0 101:0.0 102:0.0 103:0.0 104:0.0 105:0.0 106:0.0 107:0.0 108:0.0 109:0.0 110:0.0 111:0.0 112:0.0 113:0.0 114:0.0 115:0.0 116:0.0 117:0.0 118:0.0 119:0.0 120:0.0 121:0.0 122:0.0 123:0.0 124:0.0 125:0.0 126:0.0 127:0.0 128:0.0 129:0.0 130:0.8549019607843137 131:0.9921568627450981 132:0.48627450980392156 133:0.0 134:0.0 135:0.0 136:0.0 137:0.0 138:0.0 139:0.0 140:0.0 141:0.0 142:0.0 143:0.0 144:0.0 145:0.0 146:0.0 147:0.0 148:0.0 149:0.0 150:0.0 151:0.0 152:0.0 153:0.0 154:0.0 155:0.0 156:0.0 157:0.32941176470588235 158:0.9254901960784314 159:0.984313725490196 160:0.984313725490196 161:0.0 162:0.0 163:0.0 164:0.0 165:0.0 166:0.0 167:0.0 168:0.0 169:0.0 170:0.0 171:0.0 172:0.0 173:0.0 174:0.0 175:0.0 176:0.0 177:0.0 178:0.0 179:0.0 180:0.0 181:0.0 182:0.0 183:0.0 184:0.24705882352941178 185:0.9254901960784314 186:0.984313725490196 187:0.984313725490196 188:0.47843137254901963 189:0.0 190:0.0 191:0.0 192:0.0 193:0.0 194:0.0 195:0.0 196:0.0 197:0.0 198:0.0 199:0.0 200:0.0 201:0.0 202:0.0 203:0.0 204:0.0 205:0.0 206:0.0 207:0.0 208:0.0 209:0.0 210:0.0 211:0.0 212:0.28627450980392155 213:0.984313725490196 214:0.984313725490196 215:0.984313725490196 216:0.6784313725490196 217:0.0 218:0.0 219:0.0 220:0.0 221:0.0 222:0.0 223:0.0 224:0.0 225:0.0 226:0.0 227:0.0 228:0.0 229:0.0 230:0.0 231:0.0 232:0.0 233:0.0 234:0.0 235:0.0 236:0.0 237:0.0 238:0.0 239:0.0 240:0.792156862745098 241:0.984313725490196 242:0.984313725490196 243:0.984313725490196 244:0.2784313725490196 245:0.0 246:0.0 247:0.0 248:0.0 249:0.0 250:0.0 251:0.0 252:0.0 253:0.0 254:0.0 255:0.0 256:0.0 257:0.0 258:0.0 259:0.0 260:0.0 261:0.0 262:0.0 263:0.0 264:0.0 265:0.0 266:0.0 267:0.20784313725490197 268:1.0 269:0.9921568627450981 270:0.9921568627450981 271:0.9921568627450981 272:0.2823529411764706 273:0.0 274:0.0 275:0.0 276:0.0 277:0.0 278:0.0 279:0.0 280:0.0 281:0.0 282:0.0 283:0.0 284:0.0 285:0.0 286:0.0 287:0.0 288:0.0 289:0.0 290:0.0 291:0.0 292:0.0 293:0.0 294:0.0 295:0.7058823529411765 296:0.9921568627450981 297:0.984313725490196 298:0.984313725490196 299:0.7372549019607844 300:0.11764705882352941 301:0.0 302:0.0 303:0.0 304:0.0 305:0.0 306:0.0 307:0.0 308:0.0 309:0.0 310:0.0 311:0.0 312:0.0 313:0.0 314:0.0 315:0.0 316:0.0 317:0.0 318:0.0 319:0.0 320:0.0 321:0.0 322:0.0 323:0.7058823529411765 324:0.9921568627450981 325:0.984313725490196 326:0.984313725490196 327:0.5568627450980392 328:0.0 329:0.0 330:0.0 331:0.0 332:0.0 333:0.0 334:0.0 335:0.0 336:0.0 337:0.0 338:0.0 339:0.0 340:0.0 341:0.0 342:0.0 343:0.0 344:0.0 345:0.0 346:0.0 347:0.0 348:0.0 349:0.0 350:0.1843137254901961 351:0.8274509803921568 352:0.9921568627450981 353:0.984313725490196 354:0.9215686274509803 355:0.3215686274509804 356:0.0 357:0.0 358:0.0 359:0.0 360:0.0 361:0.0 362:0.0 363:0.0 364:0.0 365:0.0 366:0.0 367:0.0 368:0.0 369:0.0 370:0.0 371:0.0 372:0.0 373:0.0 374:0.0 375:0.0 376:0.0 377:0.10588235294117647 378:0.8274509803921568 379:0.984313725490196 380:0.9921568627450981 381:0.984313725490196 382:0.8431372549019608 383:0.0 384:0.0 385:0.0 386:0.0 387:0.0 388:0.0 389:0.0 390:0.0 391:0.0 392:0.0 393:0.0 394:0.0 395:0.0 396:0.0 397:0.0 398:0.0 399:0.0 400:0.0 401:0.0 402:0.0 403:0.0 404:0.0 405:0.34901960784313724 406:0.9921568627450981 407:0.9921568627450981 408:1.0 409:0.9921568627450981 410:0.6431372549019608 411:0.0 412:0.0 413:0.0 414:0.0 415:0.0 416:0.0 417:0.0 418:0.0 419:0.0 420:0.0 421:0.0 422:0.0 423:0.0 424:0.0 425:0.0 426:0.0 427:0.0 428:0.0 429:0.0 430:0.0 431:0.0 432:0.0 433:0.8509803921568627 434:0.984313725490196 435:0.984313725490196 436:0.9921568627450981 437:0.6588235294117647 438:0.058823529411764705 439:0.0 440:0.0 441:0.0 442:0.0 443:0.0 444:0.0 445:0.0 446:0.0 447:0.0 448:0.0 449:0.0 450:0.0 451:0.0 452:0.0 453:0.0 454:0.0 455:0.0 456:0.0 457:0.0 458:0.0 459:0.0 460:0.08235294117647059 461:0.8666666666666667 462:0.984313725490196 463:0.984313725490196 464:0.9921568627450981 465:0.4196078431372549 466:0.0 467:0.0 468:0.0 469:0.0 470:0.0 471:0.0 472:0.0 473:0.0 474:0.0 475:0.0 476:0.0 477:0.0 478:0.0 479:0.0 480:0.0 481:0.0 482:0.0 483:0.0 484:0.0 485:0.0 486:0.0 487:0.12549019607843137 488:0.7450980392156863 489:0.984313725490196 490:0.984313725490196 491:0.984313725490196 492:0.8666666666666667 493:0.23921568627450981 494:0.0 495:0.0 496:0.0 497:0.0 498:0.0 499:0.0 500:0.0 501:0.0 502:0.0 503:0.0 504:0.0 505:0.0 506:0.0 507:0.0 508:0.0 509:0.0 510:0.0 511:0.0 512:0.0 513:0.0 514:0.0 515:0.28627450980392155 516:0.984313725490196 517:0.984313725490196 518:0.984313725490196 519:0.984313725490196 520:0.7058823529411765 521:0.0 522:0.0 523:0.0 524:0.0 525:0.0 526:0.0 527:0.0 528:0.0 529:0.0 530:0.0 531:0.0 532:0.0 533:0.0 534:0.0 535:0.0 536:0.0 537:0.0 538:0.0 539:0.0 540:0.0 541:0.0 542:0.0 543:1.0 544:0.9921568627450981 545:0.9921568627450981 546:0.9921568627450981 547:0.788235294117647 548:0.0 549:0.0 550:0.0 551:0.0 552:0.0 553:0.0 554:0.0 555:0.0 556:0.0 557:0.0 558:0.0 559:0.0 560:0.0 561:0.0 562:0.0 563:0.0 564:0.0 565:0.0 566:0.0 567:0.0 568:0.0 569:0.0 570:0.4117647058823529 571:0.9921568627450981 572:0.984313725490196 573:0.984313725490196 574:0.984313725490196 575:0.2784313725490196 576:0.0 577:0.0 578:0.0 579:0.0 580:0.0 581:0.0 582:0.0 583:0.0 584:0.0 585:0.0 586:0.0 587:0.0 588:0.0 589:0.0 590:0.0 591:0.0 592:0.0 593:0.0 594:0.0 595:0.0 596:0.0 597:0.0 598:0.7058823529411765 599:0.9921568627450981 600:0.984313725490196 601:0.9647058823529412 602:0.5372549019607843 603:0.0392156862745098 604:0.0 605:0.0 606:0.0 607:0.0 608:0.0 609:0.0 610:0.0 611:0.0 612:0.0 613:0.0 614:0.0 615:0.0 616:0.0 617:0.0 618:0.0 619:0.0 620:0.0 621:0.0 622:0.0 623:0.0 624:0.0 625:0.0 626:0.7058823529411765 627:0.9921568627450981 628:0.984313725490196 629:0.8431372549019608 630:0.0 631:0.0 632:0.0 633:0.0 634:0.0 635:0.0 636:0.0 637:0.0 638:0.0 639:0.0 640:0.0 641:0.0 642:0.0 643:0.0 644:0.0 645:0.0 646:0.0 647:0.0 648:0.0 649:0.0 650:0.0 651:0.0 652:0.0 653:0.0 654:0.7058823529411765 655:0.9921568627450981 656:0.984313725490196 657:0.33725490196078434 658:0.0 659:0.0 660:0.0 661:0.0 662:0.0 663:0.0 664:0.0 665:0.0 666:0.0 667:0.0 668:0.0 669:0.0 670:0.0 671:0.0 672:0.0 673:0.0 674:0.0 675:0.0 676:0.0 677:0.0 678:0.0 679:0.0 680:0.0 681:0.0 682:0.0 683:0.0 684:0.0 685:0.0 686:0.0 687:0.0 688:0.0 689:0.0 690:0.0 691:0.0 692:0.0 693:0.0 694:0.0 695:0.0 696:0.0 697:0.0 698:0.0 699:0.0 700:0.0 701:0.0 702:0.0 703:0.0 704:0.0 705:0.0 706:0.0 707:0.0 708:0.0 709:0.0 710:0.0 711:0.0 712:0.0 713:0.0 714:0.0 715:0.0 716:0.0 717:0.0 718:0.0 719:0.0 720:0.0 721:0.0 722:0.0 723:0.0 724:0.0 725:0.0 726:0.0 727:0.0 728:0.0 729:0.0 730:0.0 731:0.0 732:0.0 733:0.0 734:0.0 735:0.0 736:0.0 737:0.0 738:0.0 739:0.0 740:0.0 741:0.0 742:0.0 743:0.0 744:0.0 745:0.0 746:0.0 747:0.0 748:0.0 749:0.0 750:0.0 751:0.0 752:0.0 753:0.0 754:0.0 755:0.0 756:0.0 757:0.0 758:0.0 759:0.0 760:0.0 761:0.0 762:0.0 763:0.0 764:0.0 765:0.0 766:0.0 767:0.0 768:0.0 769:0.0 770:0.0 771:0.0 772:0.0 773:0.0 774:0.0 775:0.0 776:0.0 777:0.0 778:0.0 779:0.0 780:0.0 781:0.0 782:0.0 783:0.0 784:0.0
0.011651640394781199 1:0.0 2:0.0 3:0.0 4:0.0 5:0.0 6:0.0 7:0.0 8:0.0 9:0.0 10:0.0 11:0.0 12:0.0 13:0.0 14:0.0 15:0.0 16:0.0 17:0.0 18:0.0 19:0.0 20:0.0 21:0.0 22:0.0 23:0.0 24:0.0 25:0.0 26:0.0 27:0.0 28:0.0 29:0.0 30:0.0 31:0.0 32:0.0 33:0.0 34:0.0 35:0.0 36:0.0 37:0.0 38:0.0 39:0.0 40:0.0 41:0.0 42:0.0 43:0.0 44:0.0 45:0.0 46:0.0 47:0.0 48:0.0 49:0.0 50:0.0 51:0.0 52:0.0 53:0.0 54:0.0 55:0.0 56:0.0 57:0.0 58:0.0 59:0.0 60:0.0 61:0.0 62:0.0 63:0.0 64:0.0 65:0.0 66:0.0 67:0.0 68:0.0 69:0.0 70:0.0 71:0.0 72:0.0 73:0.0 74:0.0 75:0.0 76:0.0 77:0.0 78:0.0 79:0.0 80:0.0 81:0.0 82:0.0 83:0.0 84:0.0 85:0.0 86:0.0 87:0.0 88:0.0 89:0.0 90:0.0 91:0.0 92:0.0 93:0.0 94:0.0 95:0.0 96:0.0 97:0.0 98:0.0 99:0.0 100:0.0 101:0.0 102:0.0 103:0.0 104:0.0 105:0.0 106:0.0 107:0.0 108:0.0 109:0.0 110:0.0 111:0.0 112:0.0 113:0.0 114:0.0 115:0.0 116:0.0 117:0.0 118:0.0 119:0.0 120:0.0 121:0.0 122:0.0 123:0.0 124:0.0 125:0.0 126:0.0 127:0.0 128:0.0 129:0.0 130:0.0 131:0.0 132:0.0 133:0.0 134:0.0 135:0.0 136:0.0 137:0.0 138:0.0 139:0.0 140:0.0 141:0.0 142:0.0 143:0.0 144:0.0 145:0.0 146:0.0 147:0.0 148:0.0 149:0.0 150:0.0 151:0.0 152:0.0 153:0.0 154:0.0 155:0.0 156:0.0 157:0.0 158:0.0 159:0.12156862745098039 160:0.8235294117647058 161:0.9921568627450981 162:0.6392156862745098 163:0.0 164:0.0 165:0.0 166:0.0 167:0.0 168:0.0 169:0.0 170:0.0 171:0.0 172:0.0 173:0.0 174:0.0 175:0.0 176:0.0 177:0.0 178:0.0 179:0.0 180:0.0 181:0.0 182:0.0 183:0.0 184:0.0 185:0.0 186:0.0 187:0.7764705882352941 188:0.9882352941176471 189:0.9882352941176471 190:0.6352941176470588 191:0.0 192:0.0 193:0.0 194:0.0 195:0.0 196:0.0 197:0.0 198:0.0 199:0.0 200:0.0 201:0.0 202:0.0 203:0.0 204:0.0 205:0.0 206:0.0 207:0.0 208:0.0 209:0.0 210:0.0 211:0.0 212:0.0 213:0.0392156862745098 214:0.33725490196078434 215:0.9490196078431372 216:0.9882352941176471 217:0.9882352941176471 218:0.25882352941176473 219:0.0 220:0.0 221:0.0 222:0.0 223:0.0 224:0.0 225:0.0 226:0.0 227:0.0 228:0.0 229:0.0 230:0.0 231:0.0 232:0.0 233:0.0 234:0.0 235:0.0 236:0.0 237:0.0 238:0.0 239:0.0 240:0.0 241:0.6431372549019608 242:0.9882352941176471 243:0.9882352941176471 244:0.9882352941176471 245:0.7372549019607844 246:0.03137254901960784 247:0.0 248:0.0 249:0.0 250:0.0 251:0.0 252:0.0 253:0.0 254:0.0 255:0.0 256:0.0 257:0.0 258:0.0 259:0.0 260:0.0 261:0.0 262:0.0 263:0.0 264:0.0 265:0.0 266:0.0 267:0.0 268:0.20784313725490197 269:0.9490196078431372 270:0.9882352941176471 271:0.9882352941176471 272:0.8823529411764706 273:0.054901960784313725 274:0.0 275:0.0 276:0.0 277:0.0 278:0.0 279:0.0 280:0.0 281:0.0 282:0.0 283:0.0 284:0.0 285:0.0 286:0.0 287:0.0 288:0.0 289:0.0 290:0.0 291:0.0 292:0.0 293:0.0 294:0.0 295:0.0 296:0.3058823529411765 297:0.9882352941176471 298:0.9882352941176471 299:0.9882352941176471 300:0.8 301:0.0 302:0.0 303:0.0 304:0.0 305:0.0 306:0.0 307:0.0 308:0.0 309:0.0 310:0.0 311:0.0 312:0.0 313:0.0 314:0.0 315:0.0 316:0.0 317:0.0 318:0.0 319:0.0 320:0.0 321:0.0 322:0.0 323:0.2196078431372549 324:0.9058823529411765 325:0.9882352941176471 326:0.9882352941176471 327:0.8313725490196079 328:0.13725490196078433 329:0.0 330:0.0 331:0.0 332:0.0 333:0.0 334:0.0 335:0.0 336:0.0 337:0.0 338:0.0 339:0.0 340:0.0 341:0.0 342:0.0 343:0.0 344:0.0 345:0.0 346:0.0 347:0.0 348:0.0 349:0.0 350:0.0 351:0.615686274509804 352:0.9882352941176471 353:0.9882352941176471 354:0.9882352941176471 355:0.1450980392156863 356:0.0 357:0.0 358:0.0 359:0.0 360:0.0 361:0.0 362:0.0 363:0.0 364:0.0 365:0.0 366:0.0 367:0.0 368:0.0 369:0.0 370:0.0 371:0.0 372:0.0 373:0.0 374:0.0 375:0.0 376:0.0 377:0.03137254901960784 378:0.5176470588235295 379:0.9921568627450981 380:0.9882352941176471 381:0.9882352941176471 382:0.9019607843137255 383:0.09411764705882353 384:0.0 385:0.0 386:0.0 387:0.0 388:0.0 389:0.0 390:0.0 391:0.0 392:0.0 393:0.0 394:0.0 395:0.0 396:0.0 397:0.0 398:0.0 399:0.0 400:0.0 401:0.0 402:0.0 403:0.0 404:0.0 405:0.17647058823529413 406:0.9882352941176471 407:0.9921568627450981 408:0.9882352941176471 409:0.6039215686274509 410:0.21568627450980393 411:0.0 412:0.0 413:0.0 414:0.0 415:0.0 416:0.0 417:0.0 418:0.0 419:0.0 420:0.0 421:0.0 422:0.0 423:0.0 424:0.0 425:0.0 426:0.0 427:0.027450980392156862 428:0.21568627450980393 429:0.0 430:0.0 431:0.0 432:0.0 433:0.4196078431372549 434:0.9921568627450981 435:1.0 436:0.8941176470588236 437:0.20784313725490197 438:0.0 439:0.0 440:0.0 441:0.0 442:0.0 443:0.0 444:0.0 445:0.0 446:0.0 447:0.0 448:0.0 449:0.0 450:0.0 451:0.0 452:0.0 453:0.0 454:0.058823529411764705 455:0.09411764705882353 456:0.09019607843137255 457:0.0 458:0.0 459:0.0 460:0.43137254901960786 461:0.9490196078431372 462:0.9882352941176471 463:0.8941176470588236 464:0.23137254901960785 465:0.0 466:0.0 467:0.0 468:0.0 469:0.0 470:0.0 471:0.0 472:0.0 473:0.0 474:0.0 475:0.0 476:0.0 477:0.0 478:0.0 479:0.0 480:0.0 481:0.0 482:0.2235294117647059 483:0.3254901960784314 484:0.0 485:0.0 486:0.0 487:0.34509803921568627 488:0.9686274509803922 489:0.9882352941176471 490:0.9882352941176471 491:0.5490196078431373 492:0.0 493:0.0 494:0.0 495:0.0 496:0.0 497:0.0 498:0.0 499:0.0 500:0.0 501:0.0 502:0.0 503:0.0 504:0.0 505:0.0 506:0.0 507:0.0 508:0.0 509:0.0 510:0.0 511:0.0 512:0.0 513:0.0 514:0.058823529411764705 515:0.7411764705882353 516:0.9882352941176471 517:0.9882352941176471 518:0.9882352941176471 519:0.0 520:0.0 521:0.0 522:0.0 523:0.0 524:0.0 525:0.0 526:0.0 527:0.0 528:0.0 529:0.0 530:0.0 531:0.0 532:0.0 533:0.0 534:0.0 535:0.0 536:0.0 537:0.0 538:0.0 539:0.0 540:0.0 541:0.0 542:0.2901960784313726 543:0.9882352941176471 544:0.9882352941176471 545:0.9333333333333333 546:0.35294117647058826 547:0.0 548:0.0 549:0.0 550:0.0 551:0.0 552:0.0 553:0.0 554:0.0 555:0.0 556:0.0 557:0.0 558:0.0 559:0.0 560:0.0 561:0.0 562:0.0 563:0.0 564:0.0 565:0.0 566:0.0 567:0.0 568:0.0 569:0.0 570:0.6980392156862745 571:0.9882352941176471 572:0.9882352941176471 573:0.7411764705882353 574:0.0 575:0.0 576:0.0 577:0.0 578:0.0 579:0.0 580:0.0 581:0.0 582:0.0 583:0.0 584:0.0 585:0.0 586:0.0 587:0.0 588:0.0 589:0.0 590:0.0 591:0.0 592:0.0 593:0.0 594:0.0 595:0.0 596:0.0 597:0.1568627450980392 598:0.8509803921568627 599:0.9882352941176471 600:0.9882352941176471 601:0.23137254901960785 602:0.0 603:0.0 604:0.0 605:0.0 606:0.0 607:0.0 608:0.0 609:0.0 610:0.0 611:0.0 612:0.0 613:0.0 614:0.0 615:0.0 616:0.0 617:0.0 618:0.0 619:0.0 620:0.0 621:0.0 622:0.0 623:0.0 624:0.0 625:0.29411764705882354 626:0.9882352941176471 627:0.9882352941176471 628:0.9882352941176471 629:0.3333333333333333 630:0.23921568627450981 631:0.0 632:0.0 633:0.0 634:0.0 635:0.0 636:0.0 637:0.0 638:0.0 639:0.0 640:0.0 641:0.0 642:0.0 643:0.0 644:0.0 645:0.0 646:0.0 647:0.0 648:0.0 649:0.0 650:0.0 651:0.0 652:0.0 653:0.24313725490196078 654:0.9372549019607843 655:0.9882352941176471 656:0.611764705882353 657:0.054901960784313725 658:0.0 659:0.0 660:0.0 661:0.0 662:0.0 663:0.0 664:0.0 665:0.0 666:0.0 667:0.0 668:0.0 669:0.0 670:0.0 671:0.0 672:0.0 673:0.0 674:0.0 675:0.0 676:0.0 677:0.0 678:0.0 679:0.0 680:0.0 681:0.0 682:0.6980392156862745 683:0.9882352941176471 684:0.054901960784313725 685:0.0 686:0.0 687:0.0 688:0.0 689:0.0 690:0.0 691:0.0 692:0.0 693:0.0 694:0.0 695:0.0 696:0.0 697:0.0 698:0.0 699:0.0 700:0.0 701:0.0 702:0.0 703:0.0 704:0.0 705:0.0 706:0.0 707:0.0 708:0.0 709:0.0 710:0.0 711:0.0 712:0.0 713:0.0 714:0.0 715:0.0 716:0.0 717:0.0 718:0.0 719:0.0 720:0.0 721:0.0 722:0.0 723:0.0 724:0.0 725:0.0 726:0.0 727:0.0 728:0.0 729:0.0 730:0.0 731:0.0 732:0.0 733:0.0 734:0.0 735:0.0 736:0.0 737:0.0 738:0.0 739:0.0 740:0.0 741:0.0 742:0.0 743:0.0 744:0.0 745:0.0 746:0.0 747:0.0 748:0.0 749:0.0 750:0.0 751:0.0 752:0.0 753:0.0 754:0.0 755:0.0 756:0.0 757:0.0 758:0.0 759:0.0 760:0.0 761:0.0 762:0.0 763:0.0 764:0.0 765:0.0 766:0.0 767:0.0 768:0.0 769:0.0 770:0.0 771:0.0 772:0.0 773:0.0 774:0.0 775:0.0 776:0.0 777:0.0 778:0.0 779:0.0 780:0.0 781:0.0 782:0.0 783:0.0 784:0.0
0.0978051852637449 1:0.0 2:0.0 3:0.0 4:0.0 5:0.0 6:0.0 7:0.0 8:0.0 9:0.0 10:0.0 11:0.0 12:0.0 13:0.0 14:0.0 15:0.0 16:0.0 17:0.0 18:0.0 19:0.0 20:0.0 21:0.0 22:0.0 23:0.0 24:0.0 25:0.0 26:0.0 27:0.0 28:0.0 29:0.0 30:0.0 31:0.0 32:0.0 33:0.0 34:0.0 35:0.0 36:0.0 37:0.0 38:0.0 39:0.0 40:0.0 41:0.0 42:0.0 43:0.0 44:0.0 45:0.0 46:0.0 47:0.0 48:0.0 49:0.0 50:0.0 51:0.0 52:0.0 53:0.0 54:0.0 55:0.0 56:0.0 57:0.0 58:0.0 59:0.0 60:0.0 61:0.0 62:0.0 63:0.0 64:0.0 65:0.0 66:0.0 67:0.0 68:0.0 69:0.0 70:0.0 71:0.0 72:0.0 73:0.0 74:0.0 75:0.0 76:0.0 77:0.0 78:0.0 79:0.0 80:0.0 81:0.0 82:0.0 83:0.0 84:0.0 85:0.0 86:0.0 87:0.0 88:0.0 89:0.0 90:0.0 91:0.0 92:0.0 93:0.0 94:0.0 95:0.0 96:0.0 97:0.0 98:0.25098039215686274 99:0.7490196078431373 100:0.27450980392156865 101:0.0 102:0.0 103:0.0 104:0.0 105:0.0 106:0.0 107:0.0 108:0.0 109:0.0 110:0.0 111:0.0 112:0.0 113:0.0 114:0.0 115:0.0 116:0.0 117:0.0 118:0.0 119:0.0 120:0.0 121:0.0 122:0.0 123:0.0 124:0.0 125:0.26666666666666666 126:0.9529411764705882 127:0.9921568627450981 128:0.9764705882352941 129:0.24705882352941178 130:0.0 131:0.0 132:0.0 133:0.0 134:0.0 135:0.0 136:0.0 137:0.0 138:0.0 139:0.0 140:0.0 141:0.0 142:0.0 143:0.0 144:0.0 145:0.0 146:0.0 147:0.0 148:0.0 149:0.0 150:0.0 151:0.0 152:0.11764705882352941 153:0.8745098039215686 154:0.9921568627450981 155:0.9921568627450981 156:0.9686274509803922 157:0.1607843137254902 158:0.0 159:0.0 160:0.0 161:0.0 162:0.0 163:0.0 164:0.0 165:0.0 166:0.0 167:0.0 168:0.0 169:0.0 170:0.0 171:0.0 172:0.0 173:0.0 174:0.0 175:0.0 176:0.0 177:0.0 178:0.0 179:0.28627450980392155 180:0.9333333333333333 181:0.9921568627450981 182:0.9921568627450981 183:0.9921568627450981 184:0.9490196078431372 185:0.0 186:0.0 187:0.0 188:0.0 189:0.0 190:0.0 191:0.0 192:0.0 193:0.0 194:0.0 195:0.0 196:0.0 197:0.0 198:0.0 199:0.0 200:0.0 201:0.0 202:0.0 203:0.0 204:0.0 205:0.0 206:0.28627450980392155 207:0.9254901960784314 208:0.9921568627450981 209:0.9921568627450981 210:0.9921568627450981 211:0.9921568627450981 212:0.9490196078431372 213:0.0 214:0.0 215:0.0 216:0.0 217:0.0 218:0.0 219:0.0 220:0.0 221:0.0 222:0.0 223:0.0 224:0.0 225:0.0 226:0.0 227:0.0 228:0.0 229:0.0 230:0.0 231:0.0 232:0.0 233:0.0 234:0.7137254901960784 235:0.9921568627450981 236:0.9921568627450981 237:0.7490196078431373 238:0.9686274509803922 239:0.9921568627450981 240:0.5843137254901961 241:0.0 242:0.0 243:0.0 244:0.0 245:0.0 246:0.0 247:0.0 248:0.0 249:0.0 250:0.0 251:0.0 252:0.0 253:0.0 254:0.0 255:0.0 256:0.0 257:0.0 258:0.0 259:0.0 260:0.0 261:0.0 262:0.5529411764705883 263:0.9921568627450981 264:0.5607843137254902 265:0.33725490196078434 266:0.9764705882352941 267:0.9921568627450981 268:0.47843137254901963 269:0.0 270:0.0 271:0.0 272:0.0 273:0.0 274:0.0 275:0.0 276:0.0 277:0.0 278:0.0 279:0.0 280:0.0 281:0.0 282:0.0 283:0.0 284:0.0 285:0.0 286:0.0 287:0.0 288:0.0 289:0.0 290:0.03529411764705882 291:0.1411764705882353 292:0.027450980392156862 293:0.054901960784313725 294:0.9137254901960784 295:0.9921568627450981 296:0.47843137254901963 297:0.0 298:0.0 299:0.0 300:0.0 301:0.0 302:0.0 303:0.0 304:0.0 305:0.0 306:0.0 307:0.0 308:0.0 309:0.0 310:0.0 311:0.0 312:0.0 313:0.0 314:0.0 315:0.0 316:0.0 317:0.0 318:0.0 319:0.0 320:0.0 321:0.0 322:0.9019607843137255 323:0.9921568627450981 324:0.47843137254901963 325:0.0 326:0.0 327:0.0 328:0.0 329:0.0 330:0.0 331:0.0 332:0.0 333:0.0 334:0.0 335:0.0 336:0.0 337:0.0 338:0.0 339:0.0 340:0.0 341:0.0 342:0.0 343:0.0 344:0.0 345:0.0 346:0.0 347:0.0 348:0.0 349:0.0 350:0.9019607843137255 351:0.9921568627450981 352:0.47843137254901963 353:0.0 354:0.0 355:0.0 356:0.0 357:0.0 358:0.0 359:0.0 360:0.0 361:0.0 362:0.0 363:0.0 364:0.0 365:0.0 366:0.0 367:0.0 368:0.0 369:0.0 370:0.0 371:0.0 372:0.0 373:0.0 374:0.0 375:0.0 376:0.0 377:0.0 378:0.9058823529411765 379:1.0 380:0.4823529411764706 381:0.0 382:0.0 383:0.0 384:0.0 385:0.0 386:0.0 387:0.0 388:0.0 389:0.0 390:0.0 391:0.0 392:0.0 393:0.0 394:0.0 395:0.0 396:0.0 397:0.0 398:0.0 399:0.0 400:0.0 401:0.0 402:0.0 403:0.0 404:0.0 405:0.0 406:0.9019607843137255 407:0.9921568627450981 408:0.20392156862745098 409:0.0 410:0.0 411:0.0 412:0.0 413:0.0 414:0.0 415:0.0 416:0.0 417:0.0 418:0.0 419:0.0 420:0.0 421:0.0 422:0.0 423:0.0 424:0.0 425:0.0 426:0.0 427:0.0 428:0.0 429:0.0 430:0.0 431:0.0 432:0.0 433:0.23921568627450981 434:0.9607843137254902 435:0.9921568627450981 436:0.0 437:0.0 438:0.0 439:0.0 440:0.0 441:0.0 442:0.0 443:0.0 444:0.0 445:0.0 446:0.0 447:0.0 448:0.0 449:0.0 450:0.0 451:0.0 452:0.0 453:0.0 454:0.0 455:0.0 456:0.0 457:0.0 458:0.0 459:0.0 460:0.0 461:0.3843137254901961 462:0.9921568627450981 463:0.9921568627450981 464:0.0 465:0.0 466:0.0 467:0.0 468:0.13725490196078433 469:0.047058823529411764 470:0.0 471:0.0 472:0.0 473:0.0 474:0.0 475:0.0 476:0.0 477:0.0 478:0.0 479:0.0 480:0.0 481:0.0 482:0.0 483:0.0 484:0.0 485:0.0 486:0.0 487:0.0 488:0.0 489:0.3843137254901961 490:0.9921568627450981 491:0.9921568627450981 492:0.0 493:0.0 494:0.03529411764705882 495:0.5568627450980392 496:0.9137254901960784 497:0.5725490196078431 498:0.0 499:0.0 500:0.0 501:0.0 502:0.0 503:0.0 504:0.0 505:0.0 506:0.0 507:0.0 508:0.0 509:0.0 510:0.0 511:0.0 512:0.0 513:0.0 514:0.0 515:0.0 516:0.0 517:0.7450980392156863 518:0.9921568627450981 519:0.9921568627450981 520:0.5019607843137255 521:0.027450980392156862 522:0.38823529411764707 523:0.9921568627450981 524:0.9921568627450981 525:0.7058823529411765 526:0.0 527:0.0 528:0.0 529:0.0 530:0.0 531:0.0 532:0.0 533:0.0 534:0.0 535:0.0 536:0.0 537:0.0 538:0.0 539:0.0 540:0.0 541:0.0 542:0.0 543:0.0 544:0.11372549019607843 545:0.9019607843137255 546:0.9921568627450981 547:0.9921568627450981 548:0.9882352941176471 549:0.8235294117647058 550:0.9921568627450981 551:0.9921568627450981 552:0.9921568627450981 553:0.5490196078431373 554:0.0 555:0.0 556:0.0 557:0.0 558:0.0 559:0.0 560:0.0 561:0.0 562:0.0 563:0.0 564:0.0 565:0.0 566:0.0 567:0.0 568:0.0 569:0.0 570:0.0 571:0.10980392156862745 572:0.8117647058823529 573:0.9921568627450981 574:0.9921568627450981 575:0.9921568627450981 576:0.996078431372549 577:0.9921568627450981 578:0.9921568627450981 579:0.9215686274509803 580:0.27450980392156865 581:0.03529411764705882 582:0.0 583:0.0 584:0.0 585:0.0 586:0.0 587:0.0 588:0.0 589:0.0 590:0.0 591:0.0 592:0.0 593:0.0 594:0.0 595:0.0 596:0.0 597:0.0 598:0.0 599:0.49411764705882355 600:0.9921568627450981 601:0.9921568627450981 602:0.9921568627450981 603:0.9921568627450981 604:0.996078431372549 605:0.9921568627450981 606:0.6588235294117647 607:0.07450980392156863 608:0.0 609:0.0 610:0.0 611:0.0 612:0.0 613:0.0 614:0.0 615:0.0 616:0.0 617:0.0 618:0.0 619:0.0 620:0.0 621:0.0 622:0.0 623:0.0 624:0.0 625:0.0 626:0.0 627:0.30980392156862746 628:0.9921568627450981 629:0.9921568627450981 630:0.788235294117647 631:0.7450980392156863 632:0.5176470588235295 633:0.24705882352941178 634:0.0196078431372549 635:0.0 636:0.0 637:0.0 638:0.0 639:0.0 640:0.0 641:0.0 642:0.0 643:0.0 644:0.0 645:0.0 646:0.0 647:0.0 648:0.0 649:0.0 650:0.0 651:0.0 652:0.0 653:0.0 654:0.0 655:0.0 656:0.0 657:0.0 658:0.0 659:0.0 660:0.0 661:0.0 662:0.0 663:0.0 664:0.0 665:0.0 666:0.0 667:0.0 668:0.0 669:0.0 670:0.0 671:0.0 672:0.0 673:0.0 674:0.0 675:0.0 676:0.0 677:0.0 678:0.0 679:0.0 680:0.0 681:0.0 682:0.0 683:0.0 684:0.0 685:0.0 686:0.0 687:0.0 688:0.0 689:0.0 690:0.0 691:0.0 692:0.0 693:0.0 694:0.0 695:0.0 696:0.0 697:0.0 698:0.0 699:0.0 700:0.0 701:0.0 702:0.0 703:0.0 704:0.0 705:0.0 706:0.0 707:0.0 708:0.0 709:0.0 710:0.0 711:0.0 712:0.0 713:0.0 714:0.0 715:0.0 716:0.0 717:0.0 718:0.0 719:0.0 720:0.0 721:0.0 722:0.0 723:0.0 724:0.0 725:0.0 726:0.0 727:0.0 728:0.0 729:0.0 730:0.0 731:0.0 732:0.0 733:0.0 734:0.0 735:0.0 736:0.0 737:0.0 738:0.0 739:0.0 740:0.0 741:0.0 742:0.0 743:0.0 744:0.0 745:0.0 746:0.0 747:0.0 748:0.0 749:0.0 750:0.0 751:0.0 752:0.0 753:0.0 754:0.0 755:0.0 756:0.0 757:0.0 758:0.0 759:0.0 760:0.0 761:0.0 762:0.0 763:0.0 764:0.0 765:0.0 766:0.0 767:0.0 768:0.0 769:0.0 770:0.0 771:0.0 772:0.0 773:0.0 774:0.0 775:0.0 776:0.0 777:0.0 778:0.0 779:0.0 780:0.0 781:0.0 782:0.0 783:0.0 784:0.0
0.06089991282164039 1:0.0 2:0.0 3:0.0 4:0.0 5:0.0 6:0.0 7:0.0 8:0.0 9:0.0 10:0.0 11:0.0 12:0.0 13:0.0 14:0.0 15:0.0 16:0.0 17:0.0 18:0.0 19:0.0 20:0.0 21:0.0 22:0.0 23:0.0 24:0.0 25:0.0 26:0.0 27:0.0 28:0.0 29:0.0 30:0.0 31:0.0 32:0.0 33:0.0 34:0.0 35:0.0 36:0.0 37:0.0 38:0.0 39:0.0 40:0.0 41:0.0 42:0.0 43:0.0 44:0.0 45:0.0 46:0.0 47:0.0 48:0.0 49:0.0 50:0.0 51:0.0 52:0.0 53:0.0 54:0.0 55:0.0 56:0.0 57:0.0 58:0.0 59:0.0 60:0.0 61:0.0 62:0.0 63:0.0 64:0.0 65:0.0 66:0.0 67:0.0 68:0.0 69:0.0 70:0.0 71:0.0 72:0.0 73:0.0 74:0.0 75:0.0 76:0.0 77:0.0 78:0.0 79:0.0 80:0.0 81:0.0 82:0.0 83:0.0 84:0.0 85:0.0 86:0.0 87:0.0 88:0.0 89:0.0 90:0.0 91:0.0 92:0.0 93:0.0 94:0.0 95:0.0 96:0.0 97:0.0 98:0.0 99:0.0 100:0.0 101:0.0 102:0.0 103:0.0 104:0.0 105:0.0 106:0.0 107:0.0 108:0.0 109:0.0 110:0.0 111:0.0 112:0.0 113:0.0 114:0.0 115:0.0 116:0.0 117:0.0 118:0.0 119:0.0 120:0.0 121:0.0 122:0.0 123:0.0 124:0.0 125:0.0 126:0.0 127:0.0 128:0.0 129:0.0 130:0.0 131:0.0 132:0.0 133:0.0 134:0.0 135:0.0 136:0.0 137:0.0 138:0.0 139:0.0 140:0.0 141:0.0 142:0.0 143:0.0 144:0.0 145:0.0 146:0.0 147:0.0 148:0.0 149:0.0 150:0.0 151:0.0 152:0.0 153:0.0 154:0.0 155:0.0 156:0.0 157:0.0 158:0.0 159:0.0 160:0.09803921568627451 161:0.6196078431372549 162:1.0 163:0.6274509803921569 164:0.07450980392156863 165:0.0 166:0.0 167:0.0 168:0.0 169:0.0 170:0.0 171:0.0 172:0.0 173:0.0 174:0.0 175:0.0 176:0.0 177:0.0 178:0.0 179:0.0 180:0.0 181:0.0 182:0.0 183:0.0 184:0.0 185:0.0 186:0.0 187:0.3137254901960784 188:0.8313725490196079 189:0.9921568627450981 190:0.9568627450980393 191:0.7019607843137254 192:0.054901960784313725 193:0.0 194:0.0 195:0.0 196:0.0 197:0.0 198:0.0 199:0.0 200:0.0 201:0.0 202:0.0 203:0.0 204:0.0 205:0.0 206:0.0 207:0.0 208:0.0 209:0.0 210:0.0 211:0.0 212:0.0 213:0.0 214:0.09411764705882353 215:0.611764705882353 216:0.9921568627450981 217:0.9921568627450981 218:0.6392156862745098 219:0.0 220:0.0 221:0.0 222:0.0 223:0.0 224:0.0 225:0.0 226:0.0 227:0.0 228:0.0 229:0.0 230:0.0 231:0.0 232:0.0 233:0.0 234:0.0 235:0.0 236:0.0 237:0.0 238:0.0 239:0.0 240:0.0 241:0.10588235294117647 242:0.8117647058823529 243:0.9921568627450981 244:0.9607843137254902 245:0.41568627450980394 246:0.07058823529411765 247:0.0 248:0.0 249:0.0 250:0.0 251:0.0 252:0.0 253:0.0 254:0.0 255:0.0 256:0.0 257:0.0 258:0.0 259:0.0 260:0.0 261:0.0 262:0.0 263:0.0 264:0.0 265:0.0 266:0.0 267:0.0 268:0.0 269:0.5333333333333333 270:0.9921568627450981 271:0.9921568627450981 272:0.9333333333333333 273:0.16470588235294117 274:0.0 275:0.0 276:0.0 277:0.0 278:0.0 279:0.0 280:0.0 281:0.0 282:0.0 283:0.0 284:0.0 285:0.0 286:0.0 287:0.0 288:0.0 289:0.0 290:0.0 291:0.0 292:0.0 293:0.0 294:0.0 295:0.09803921568627451 296:0.7764705882352941 297:0.9764705882352941 298:0.9921568627450981 299:0.7568627450980392 300:0.10196078431372549 301:0.0 302:0.0 303:0.0 304:0.0 305:0.0 306:0.0 307:0.0 308:0.0 309:0.0 310:0.0 311:0.0 312:0.0 313:0.0 314:0.0 315:0.0 316:0.0 317:0.0 318:0.0 319:0.0 320:0.0 321:0.0 322:0.00392156862745098 323:0.25098039215686274 324:0.9921568627450981 325:0.9921568627450981 326:0.9725490196078431 327:0.25882352941176473 328:0.0 329:0.0 330:0.0 331:0.0 332:0.0 333:0.0 334:0.0 335:0.0 336:0.0 337:0.0 338:0.0 339:0.0 340:0.0 341:0.0 342:0.0 343:0.0 344:0.0 345:0.0 346:0.0 347:0.0 348:0.0 349:0.0 350:0.42745098039215684 351:0.9921568627450981 352:0.9921568627450981 353:0.9921568627450981 354:0.09019607843137255 355:0.0 356:0.0 357:0.0 358:0.0 359:0.0 360:0.0 361:0.0 362:0.0 363:0.0 364:0.0 365:0.0 366:0.0 367:0.0 368:0.0 369:0.0 370:0.0 371:0.0 372:0.0 373:0.0 374:0.0 375:0.0 376:0.0 377:0.09411764705882353 378:0.6862745098039216 379:0.9921568627450981 380:0.9450980392156862 381:0.6549019607843137 382:0.03529411764705882 383:0.0 384:0.0 385:0.0 386:0.0 387:0.0 388:0.0 389:0.0 390:0.0 391:0.0 392:0.0 393:0.0 394:0.0 395:0.0 396:0.0 397:0.0 398:0.0 399:0.0 400:0.0 401:0.0 402:0.0 403:0.0 404:0.0196078431372549 405:0.8627450980392157 406:0.9921568627450981 407:0.9921568627450981 408:0.3686274509803922 409:0.0 410:0.0 411:0.0 412:0.0 413:0.0 414:0.0 415:0.0 416:0.0 417:0.0 418:0.0 419:0.0 420:0.0 421:0.0 422:0.0 423:0.0 424:0.0 425:0.0 426:0.0 427:0.0 428:0.0 429:0.0 430:0.0 431:0.0 432:0.3058823529411765 433:0.9921568627450981 434:0.9921568627450981 435:0.6745098039215687 436:0.054901960784313725 437:0.0 438:0.0 439:0.0 440:0.0 441:0.0 442:0.0 443:0.0 444:0.0 445:0.0 446:0.0 447:0.0 448:0.0 449:0.0 450:0.0 451:0.0 452:0.0 453:0.0 454:0.0 455:0.0 456:0.0 457:0.0 458:0.0 459:0.1568627450980392 460:0.9686274509803922 461:0.9921568627450981 462:0.9333333333333333 463:0.18823529411764706 464:0.0 465:0.0 466:0.0 467:0.0 468:0.0 469:0.0 470:0.0 471:0.0 472:0.0 473:0.0 474:0.0 475:0.0 476:0.0 477:0.0 478:0.0 479:0.0 480:0.0 481:0.0 482:0.0 483:0.0 484:0.0 485:0.0 486:0.0 487:0.6235294117647059 488:0.9921568627450981 489:0.9529411764705882 490:0.5372549019607843 491:0.1411764705882353 492:0.0 493:0.0 494:0.0 495:0.0 496:0.0 497:0.0 498:0.0 499:0.0 500:0.0 501:0.0 502:0.0 503:0.0 504:0.0 505:0.0 506:0.0 507:0.0 508:0.0 509:0.0 510:0.0 511:0.0 512:0.0 513:0.0 514:0.5803921568627451 515:0.9921568627450981 516:0.9921568627450981 517:0.6627450980392157 518:0.0 519:0.0 520:0.0 521:0.0 522:0.0 523:0.0 524:0.0 525:0.0 526:0.0 527:0.0 528:0.0 529:0.0 530:0.0 531:0.0 532:0.0 533:0.0 534:0.0 535:0.0 536:0.0 537:0.0 538:0.0 539:0.0 540:0.0 541:0.16470588235294117 542:0.9176470588235294 543:0.9921568627450981 544:0.7098039215686275 545:0.1843137254901961 546:0.0 547:0.0 548:0.0 549:0.0 550:0.0 551:0.0 552:0.0 553:0.0 554:0.0 555:0.0 556:0.0 557:0.0 558:0.0 559:0.0 560:0.0 561:0.0 562:0.0 563:0.0 564:0.0 565:0.0 566:0.0 567:0.0 568:0.0392156862745098 569:0.6274509803921569 570:0.9921568627450981 571:0.9921568627450981 572:0.20392156862745098 573:0.0 574:0.0 575:0.0 576:0.0 577:0.0 578:0.0 579:0.0 580:0.0 581:0.0 582:0.0 583:0.0 584:0.0 585:0.0 586:0.0 587:0.0 588:0.0 589:0.0 590:0.0 591:0.0 592:0.0 593:0.0 594:0.0 595:0.0 596:0.5450980392156862 597:0.9921568627450981 598:0.9921568627450981 599:0.3568627450980392 600:0.011764705882352941 601:0.0 602:0.0 603:0.0 604:0.0 605:0.0 606:0.0 607:0.0 608:0.0 609:0.0 610:0.0 611:0.0 612:0.0 613:0.0 614:0.0 615:0.0 616:0.0 617:0.0 618:0.0 619:0.0 620:0.0 621:0.0 622:0.0 623:0.047058823529411764 624:0.7764705882352941 625:0.9921568627450981 626:0.8784313725490196 627:0.0784313725490196 628:0.0 629:0.0 630:0.0 631:0.0 632:0.0 633:0.0 634:0.0 635:0.0 636:0.0 637:0.0 638:0.0 639:0.0 640:0.0 641:0.0 642:0.0 643:0.0 644:0.0 645:0.0 646:0.0 647:0.0 648:0.0 649:0.0 650:0.0 651:0.1411764705882353 652:0.9921568627450981 653:0.9921568627450981 654:0.4627450980392157 655:0.0 656:0.0 657:0.0 658:0.0 659:0.0 660:0.0 661:0.0 662:0.0 663:0.0 664:0.0 665:0.0 666:0.0 667:0.0 668:0.0 669:0.0 670:0.0 671:0.0 672:0.0 673:0.0 674:0.0 675:0.0 676:0.0 677:0.0 678:0.0 679:0.07450980392156863 680:0.8431372549019608 681:0.7333333333333333 682:0.01568627450980392 683:0.0 684:0.0 685:0.0 686:0.0 687:0.0 688:0.0 689:0.0 690:0.0 691:0.0 692:0.0 693:0.0 694:0.0 695:0.0 696:0.0 697:0.0 698:0.0 699:0.0 700:0.0 701:0.0 702:0.0 703:0.0 704:0.0 705:0.0 706:0.0 707:0.0 708:0.0 709:0.0 710:0.0 711:0.0 712:0.0 713:0.0 714:0.0 715:0.0 716:0.0 717:0.0 718:0.0 719:0.0 720:0.0 721:0.0 722:0.0 723:0.0 724:0.0 725:0.0 726:0.0 727:0.0 728:0.0 729:0.0 730:0.0 731:0.0 732:0.0 733:0.0 734:0.0 735:0.0 736:0.0 737:0.0 738:0.0 739:0.0 740:0.0 741:0.0 742:0.0 743:0.0 744:0.0 745:0.0 746:0.0 747:0.0 748:0.0 749:0.0 750:0.0 751:0.0 752:0.0 753:0.0 754:0.0 755:0.0 756:0.0 757:0.0 758:0.0 759:0.0 760:0.0 761:0.0 762:0.0 763:0.0 764:0.0 765:0.0 766:0.0 767:0.0 768:0.0 769:0.0 770:0.0 771:0.0 772:0.0 773:0.0 774:0.0 775:0.0 776:0.0 777:0.0 778:0.0 779:0.0 780:0.0 781:0.0 782:0.0 783:0.0 784:0.0
0.03270809998294448 1:0.0 2:0.0 3:0.0 4:0.0 5:0.0 6:0.0 7:0.0 8:0.0 9:0.0 10:0.0 11:0.0 12:0.0 13:0.0 14:0.0 15:0.0 16:0.0 17:0.0 18:0.0 19:0.0 20:0.0 21:0.0 22:0.0 23:0.0 24:0.0 25:0.0 26:0.0 27:0.0 28:0.0 29:0.0 30:0.0 31:0.0 32:0.0 33:0.0 34:0.0 35:0.0 36:0.0 37:0.0 38:0.0 39:0.0 40:0.0 41:0.0 42:0.0 43:0.0 44:0.0 45:0.0 46:0.0 47:0.0 48:0.0 49:0.0 50:0.0 51:0.0 52:0.0 53:0.0 54:0.0 55:0.0 56:0.0 57:0.0 58:0.0 59:0.0 60:0.0 61:0.0 62:0.0 63:0.0 64:0.0 65:0.0 66:0.0 67:0.0 68:0.0 69:0.0 70:0.0 71:0.0 72:0.0 73:0.0 74:0.0 75:0.0 76:0.0 77:0.0 78:0.0 79:0.0 80:0.0 81:0.0 82:0.0 83:0.0 84:0.0 85:0.0 86:0.0 87:0.0 88:0.0 89:0.0 90:0.0 91:0.0 92:0.0 93:0.0 94:0.0 95:0.0 96:0.0 97:0.0 98:0.0 99:0.0 100:0.0 101:0.0 102:0.0 103:0.0 104:0.0 105:0.0 106:0.0 107:0.0 108:0.0 109:0.0 110:0.0 111:0.0 112:0.0 113:0.0 114:0.0 115:0.0 116:0.0 117:0.0 118:0.0 119:0.0 120:0.0 121:0.0 122:0.0 123:0.0 124:0.0 125:0.0 126:0.3607843137254902 127:0.9921568627450981 128:0.5019607843137255 129:0.01568627450980392 130:0.0 131:0.0 132:0.0 133:0.0 134:0.0 135:0.0 136:0.0 137:0.0 138:0.0 139:0.0 140:0.0 141:0.0 142:0.0 143:0.0 144:0.0 145:0.0 146:0.0 147:0.0 148:0.0 149:0.0 150:0.0 151:0.0 152:0.0 153:0.0 154:0.4549019607843137 155:0.9882352941176471 156:0.9882352941176471 157:0.20784313725490197 158:0.0 159:0.0 160:0.0 161:0.0 162:0.0 163:0.0 164:0.0 165:0.0 166:0.0 167:0.0 168:0.0 169:0.0 170:0.0 171:0.0 172:0.0 173:0.0 174:0.0 175:0.0 176:0.0 177:0.0 178:0.0 179:0.0 180:0.0 181:0.0 182:0.11372549019607843 183:0.9882352941176471 184:0.9882352941176471 185:0.5450980392156862 186:0.0 187:0.0 188:0.0 189:0.0 190:0.0 191:0.0 192:0.0 193:0.0 194:0.0 195:0.0 196:0.0 197:0.0 198:0.0 199:0.0 200:0.0 201:0.0 202:0.0 203:0.0 204:0.0 205:0.0 206:0.0 207:0.0 208:0.0 209:0.0 210:0.11372549019607843 211:0.9882352941176471 212:0.9882352941176471 213:0.5450980392156862 214:0.0 215:0.0 216:0.0 217:0.0 218:0.0 219:0.0 220:0.0 221:0.0 222:0.0 223:0.0 224:0.0 225:0.0 226:0.0 227:0.0 228:0.0 229:0.0 230:0.0 231:0.0 232:0.0 233:0.0 234:0.0 235:0.0 236:0.0 237:0.0 238:0.11372549019607843 239:0.9921568627450981 240:0.9921568627450981 241:0.5490196078431373 242:0.0 243:0.0 244:0.0 245:0.0 246:0.0 247:0.0 248:0.0 249:0.0 250:0.0 251:0.0 252:0.0 253:0.0 254:0.0 255:0.0 256:0.0 257:0.0 258:0.0 259:0.0 260:0.0 261:0.0 262:0.0 263:0.0 264:0.0 265:0.0 266:0.11372549019607843 267:0.9882352941176471 268:0.9882352941176471 269:0.5450980392156862 270:0.0 271:0.0 272:0.0 273:0.0 274:0.0 275:0.0 276:0.0 277:0.0 278:0.0 279:0.0 280:0.0 281:0.0 282:0.0 283:0.0 284:0.0 285:0.0 286:0.0 287:0.0 288:0.0 289:0.0 290:0.0 291:0.0 292:0.0 293:0.0 294:0.11372549019607843 295:0.9882352941176471 296:0.9882352941176471 297:0.5450980392156862 298:0.0 299:0.0 300:0.0 301:0.0 302:0.0 303:0.0 304:0.0 305:0.0 306:0.0 307:0.0 308:0.0 309:0.0 310:0.0 311:0.0 312:0.0 313:0.0 314:0.0 315:0.0 316:0.0 317:0.0 318:0.0 319:0.0 320:0.0 321:0.0 322:0.11372549019607843 323:0.9882352941176471 324:0.9882352941176471 325:0.5450980392156862 326:0.0 327:0.0 328:0.0 329:0.0 330:0.0 331:0.0 332:0.0 333:0.0 334:0.0 335:0.0 336:0.0 337:0.0 338:0.0 339:0.0 340:0.0 341:0.0 342:0.0 343:0.0 344:0.0 345:0.0 346:0.0 347:0.0 348:0.0 349:0.0 350:0.3607843137254902 351:0.9921568627450981 352:0.9921568627450981 353:0.5490196078431373 354:0.0 355:0.0 356:0.0 357:0.0 358:0.0 359:0.0 360:0.0 361:0.0 362:0.0 363:0.0 364:0.0 365:0.0 366:0.0 367:0.0 368:0.0 369:0.0 370:0.0 371:0.0 372:0.0 373:0.0 374:0.0 375:0.0 376:0.0 377:0.0 378:0.5529411764705883 379:0.9882352941176471 380:0.9882352941176471 381:0.5450980392156862 382:0.0 383:0.0 384:0.0 385:0.0 386:0.0 387:0.0 388:0.0 389:0.0 390:0.0 391:0.0 392:0.0 393:0.0 394:0.0 395:0.0 396:0.0 397:0.0 398:0.0 399:0.0 400:0.0 401:0.0 402:0.0 403:0.0 404:0.0 405:0.0 406:0.5529411764705883 407:0.9882352941176471 408:0.9882352941176471 409:0.5450980392156862 410:0.0 411:0.0 412:0.0 413:0.0 414:0.0 415:0.0 416:0.0 417:0.0 418:0.0 419:0.0 420:0.0 421:0.0 422:0.0 423:0.0 424:0.0 425:0.0 426:0.0 427:0.0 428:0.0 429:0.0 430:0.0 431:0.0 432:0.0 433:0.0 434:0.5529411764705883 435:0.9882352941176471 436:0.9882352941176471 437:0.5450980392156862 438:0.0 439:0.0 440:0.0 441:0.0 442:0.0 443:0.0 444:0.0 445:0.0 446:0.0 447:0.0 448:0.0 449:0.0 450:0.0 451:0.0 452:0.0 453:0.0 454:0.0 455:0.0 456:0.0 457:0.0 458:0.0 459:0.0 460:0.0 461:0.0 462:0.5529411764705883 463:0.9921568627450981 464:0.9921568627450981 465:0.3058823529411765 466:0.0 467:0.0 468:0.0 469:0.0 470:0.0 471:0.0 472:0.0 473:0.0 474:0.0 475:0.0 476:0.0 477:0.0 478:0.0 479:0.0 480:0.0 481:0.0 482:0.0 483:0.0 484:0.0 485:0.0 486:0.0 487:0.0 488:0.0 489:0.0 490:0.5529411764705883 491:0.9882352941176471 492:0.9882352941176471 493:0.10980392156862745 494:0.0 495:0.0 496:0.0 497:0.0 498:0.0 499:0.0 500:0.0 501:0.0 502:0.0 503:0.0 504:0.0 505:0.0 506:0.0 507:0.0 508:0.0 509:0.0 510:0.0 511:0.0 512:0.0 513:0.0 514:0.0 515:0.0 516:0.0 517:0.0 518:0.6980392156862745 519:0.9882352941176471 520:0.9882352941176471 521:0.10980392156862745 522:0.0 523:0.0 524:0.0 525:0.0 526:0.0 527:0.0 528:0.0 529:0.0 530:0.0 531:0.0 532:0.0 533:0.0 534:0.0 535:0.0 536:0.0 537:0.0 538:0.0 539:0.0 540:0.0 541:0.0 542:0.0 543:0.0 544:0.0 545:0.0 546:0.9921568627450981 547:0.9882352941176471 548:0.9882352941176471 549:0.10980392156862745 550:0.0 551:0.0 552:0.0 553:0.0 554:0.0 555:0.0 556:0.0 557:0.0 558:0.0 559:0.0 560:0.0 561:0.0 562:0.0 563:0.0 564:0.0 565:0.0 566:0.0 567:0.0 568:0.0 569:0.0 570:0.0 571:0.0 572:0.0 573:0.0 574:1.0 575:0.9921568627450981 576:0.807843137254902 577:0.050980392156862744 578:0.0 579:0.0 580:0.0 581:0.0 582:0.0 583:0.0 584:0.0 585:0.0 586:0.0 587:0.0 588:0.0 589:0.0 590:0.0 591:0.0 592:0.0 593:0.0 594:0.0 595:0.0 596:0.0 597:0.0 598:0.0 599:0.0 600:0.0 601:0.0 602:0.9921568627450981 603:0.9882352941176471 604:0.7333333333333333 605:0.027450980392156862 606:0.0 607:0.0 608:0.0 609:0.0 610:0.0 611:0.0 612:0.0 613:0.0 614:0.0 615:0.0 616:0.0 617:0.0 618:0.0 619:0.0 620:0.0 621:0.0 622:0.0 623:0.0 624:0.0 625:0.0 626:0.0 627:0.0 628:0.0 629:0.0 630:0.9921568627450981 631:0.9882352941176471 632:0.9882352941176471 633:0.10980392156862745 634:0.0 635:0.0 636:0.0 637:0.0 638:0.0 639:0.0 640:0.0 641:0.0 642:0.0 643:0.0 644:0.0 645:0.0 646:0.0 647:0.0 648:0.0 649:0.0 650:0.0 651:0.0 652:0.0 653:0.0 654:0.0 655:0.0 656:0.0 657:0.0 658:0.7450980392156863 659:0.5450980392156862 660:0.403921568627451 661:0.011764705882352941 662:0.0 663:0.0 664:0.0 665:0.0 666:0.0 667:0.0 668:0.0 669:0.0 670:0.0 671:0.0 672:0.0 673:0.0 674:0.0 675:0.0 676:0.0 677:0.0 678:0.0 679:0.0 680:0.0 681:0.0 682:0.0 683:0.0 684:0.0 685:0.0 686:0.0 687:0.0 688:0.0 689:0.0 690:0.0 691:0.0 692:0.0 693:0.0 694:0.0 695:0.0 696:0.0 697:0.0 698:0.0 699:0.0 700:0.0 701:0.0 702:0.0 703:0.0 704:0.0 705:0.0 706:0.0 707:0.0 708:0.0 709:0.0 710:0.0 711:0.0 712:0.0 713:0.0 714:0.0 715:0.0 716:0.0 717:0.0 718:0.0 719:0.0 720:0.0 721:0.0 722:0.0 723:0.0 724:0.0 725:0.0 726:0.0 727:0.0 728:0.0 729:0.0 730:0.0 731:0.0 732:0.0 733:0.0 734:0.0 735:0.0 736:0.0 737:0.0 738:0.0 739:0.0 740:0.0 741:0.0 742:0.0 743:0.0 744:0.0 745:0.0 746:0.0 747:0.0 748:0.0 749:0.0 750:0.0 751:0.0 752:0.0 753:0.0 754:0.0 755:0.0 756:0.0 757:0.0 758:0.0 759:0.0 760:0.0 761:0.0 762:0.0 763:0.0 764:0.0 765:0.0 766:0.0 767:0.0 768:0.0 769:0.0 770:0.0 771:0.0 772:0.0 773:0.0 774:0.0 775:0.0 776:0.0 777:0.0 778:0.0 779:0.0 780:0.0 781:0.0 782:0.0 783:0.0 784:0.0
0.07014467142717014 1:0.0 2:0.0 3:0.0 4:0.0 5:0.0 6:0.0 7:0.0 8:0.0 9:0.0 10:0.0 11:0.0 12:0.0 13:0.0 14:0.0 15:0.0 16:0.0 17:0.0 18:0.0 19:0.0 20:0.0 21:0.0 22:0.0 23:0.0 24:0.0 25:0.0 26:0.0 27:0.0 28:0.0 29:0.0 30:0.0 31:0.0 32:0.0 33:0.0 34:0.0 35:0.0 36:0.0 37:0.0 38:0.0 39:0.0 40:0.0 41:0.0 42:0.0 43:0.0 44:0.0 45:0.0 46:0.0 47:0.0 48:0.0 49:0.0 50:0.0 51:0.0 52:0.0 53:0.0 54:0.0 55:0.0 56:0.0 57:0.0 58:0.0 59:0.0 60:0.0 61:0.0 62:0.0 63:0.0 64:0.0 65:0.0 66:0.0 67:0.0 68:0.0 69:0.0 70:0.0 71:0.0 72:0.0 73:0.0 74:0.0 75:0.0 76:0.0 77:0.0 78:0.0 79:0.0 80:0.0 81:0.0 82:0.0 83:0.0 84:0.0 85:0.0 86:0.0 87:0.0 88:0.0 89:0.0 90:0.0 91:0.0 92:0.0 93:0.0 94:0.0 95:0.0 96:0.0 97:0.0 98:0.0 99:0.0 100:0.0 101:0.0 102:0.0 103:0.0 104:0.0 105:0.0 106:0.0 107:0.0 108:0.0 109:0.0 110:0.0 111:0.0 112:0.0 113:0.0 114:0.0 115:0.0 116:0.0 117:0.0 118:0.0 119:0.0 120:0.0 121:0.0 122:0.0 123:0.0 124:0.0 125:0.0 126:0.0 127:0.0 128:0.0 129:0.0 130:0.0 131:0.0 132:0.0 133:0.0 134:0.0 135:0.0 136:0.0 137:0.0 138:0.0 139:0.0 140:0.0 141:0.0 142:0.0 143:0.0 144:0.0 145:0.0 146:0.0 147:0.0 148:0.0 149:0.0 150:0.0 151:0.0 152:0.0 153:0.0 154:0.0 155:0.0 156:0.0 157:0.3333333333333333 158:1.0 159:0.403921568627451 160:0.00392156862745098 161:0.0 162:0.0 163:0.0 164:0.0 165:0.0 166:0.0 167:0.0 168:0.0 169:0.0 170:0.0 171:0.0 172:0.0 173:0.0 174:0.0 175:0.0 176:0.0 177:0.0 178:0.0 179:0.0 180:0.0 181:0.0 182:0.0 183:0.0 184:0.0 185:0.803921568627451 186:0.9921568627450981 187:0.9921568627450981 188:0.11764705882352941 189:0.0 190:0.0 191:0.0 192:0.0 193:0.0 194:0.0 195:0.0 196:0.0 197:0.0 198:0.0 199:0.0 200:0.0 201:0.0 202:0.0 203:0.0 204:0.0 205:0.0 206:0.0 207:0.0 208:0.0 209:0.0 210:0.0 211:0.0 212:0.0 213:0.803921568627451 214:0.9921568627450981 215:0.9921568627450981 216:0.11764705882352941 217:0.0 218:0.0 219:0.0 220:0.0 221:0.0 222:0.0 223:0.0 224:0.0 225:0.0 226:0.0 227:0.0 228:0.0 229:0.0 230:0.0 231:0.0 232:0.0 233:0.0 234:0.0 235:0.0 236:0.0 237:0.0 238:0.0 239:0.0 240:0.17254901960784313 241:0.9137254901960784 242:0.9921568627450981 243:0.9568627450980393 244:0.10588235294117647 245:0.0 246:0.0 247:0.0 248:0.0 249:0.0 250:0.0 251:0.0 252:0.0 253:0.0 254:0.0 255:0.0 256:0.0 257:0.0 258:0.0 259:0.0 260:0.0 261:0.0 262:0.0 263:0.0 264:0.0 265:0.0 266:0.0 267:0.0 268:0.5294117647058824 269:0.9921568627450981 270:0.9921568627450981 271:0.39215686274509803 272:0.0 273:0.0 274:0.0 275:0.0 276:0.0 277:0.0 278:0.0 279:0.0 280:0.0 281:0.0 282:0.0 283:0.0 284:0.0 285:0.0 286:0.0 287:0.0 288:0.0 289:0.0 290:0.0 291:0.0 292:0.0 293:0.0 294:0.0 295:0.0 296:0.6 297:0.9921568627450981 298:0.9411764705882353 299:0.2980392156862745 300:0.0 301:0.0 302:0.0 303:0.0 304:0.0 305:0.0 306:0.0 307:0.0 308:0.0 309:0.0 310:0.0 311:0.0 312:0.0 313:0.0 314:0.0 315:0.0 316:0.0 317:0.0 318:0.0 319:0.0 320:0.0 321:0.0 322:0.0 323:0.047058823529411764 324:0.8156862745098039 325:0.9921568627450981 326:0.6509803921568628 327:0.0 328:0.0 329:0.0 330:0.0 331:0.0 332:0.0 333:0.0 334:0.0 335:0.0 336:0.0 337:0.0 338:0.0 339:0.0 340:0.0 341:0.0 342:0.0 343:0.0 344:0.0 345:0.0 346:0.0 347:0.0 348:0.0 349:0.0 350:0.0 351:0.27058823529411763 352:0.9921568627450981 353:0.9921568627450981 354:0.5568627450980392 355:0.0 356:0.0 357:0.0 358:0.0 359:0.0 360:0.0 361:0.0 362:0.0 363:0.0 364:0.0 365:0.0 366:0.0 367:0.0 368:0.0 369:0.0 370:0.0 371:0.0 372:0.0 373:0.0 374:0.0 375:0.0 376:0.0 377:0.0 378:0.054901960784313725 379:0.43137254901960786 380:0.9921568627450981 381:0.9215686274509803 382:0.12941176470588237 383:0.0 384:0.0 385:0.0 386:0.0 387:0.0 388:0.0 389:0.0 390:0.0 391:0.0 392:0.0 393:0.0 394:0.0 395:0.0 396:0.0 397:0.0 398:0.0 399:0.0 400:0.0 401:0.0 402:0.0 403:0.0 404:0.0 405:0.0 406:0.24705882352941178 407:0.8745098039215686 408:0.9215686274509803 409:0.5098039215686274 410:0.0 411:0.0 412:0.0 413:0.0 414:0.0 415:0.0 416:0.0 417:0.0 418:0.0 419:0.0 420:0.0 421:0.0 422:0.0 423:0.0 424:0.0 425:0.0 426:0.0 427:0.0 428:0.0 429:0.0 430:0.0 431:0.0 432:0.0 433:0.0 434:0.7294117647058823 435:0.9921568627450981 436:0.9215686274509803 437:0.1450980392156863 438:0.0 439:0.0 440:0.0 441:0.0 442:0.0 443:0.0 444:0.0 445:0.0 446:0.0 447:0.0 448:0.0 449:0.0 450:0.0 451:0.0 452:0.0 453:0.0 454:0.0 455:0.0 456:0.0 457:0.0 458:0.0 459:0.0 460:0.0 461:0.06666666666666667 462:0.5686274509803921 463:0.9921568627450981 464:0.9058823529411765 465:0.13725490196078433 466:0.0 467:0.0 468:0.0 469:0.0 470:0.0 471:0.0 472:0.0 473:0.0 474:0.0 475:0.0 476:0.0 477:0.0 478:0.0 479:0.0 480:0.0 481:0.0 482:0.0 483:0.0 484:0.0 485:0.0 486:0.0 487:0.0 488:0.0 489:0.27058823529411763 490:0.8627450980392157 491:0.9058823529411765 492:0.4823529411764706 493:0.0 494:0.0 495:0.0 496:0.0 497:0.0 498:0.0 499:0.0 500:0.0 501:0.0 502:0.0 503:0.0 504:0.0 505:0.0 506:0.0 507:0.0 508:0.0 509:0.0 510:0.0 511:0.0 512:0.0 513:0.0 514:0.0 515:0.0 516:0.07058823529411765 517:0.803921568627451 518:0.9921568627450981 519:0.6901960784313725 520:0.10588235294117647 521:0.0 522:0.0 523:0.0 524:0.0 525:0.0 526:0.0 527:0.0 528:0.0 529:0.0 530:0.0 531:0.0 532:0.0 533:0.0 534:0.0 535:0.0 536:0.0 537:0.0 538:0.0 539:0.0 540:0.0 541:0.0 542:0.0 543:0.06666666666666667 544:0.49019607843137253 545:0.9921568627450981 546:0.7254901960784313 547:0.15294117647058825 548:0.0 549:0.0 550:0.0 551:0.0 552:0.0 553:0.0 554:0.0 555:0.0 556:0.0 557:0.0 558:0.0 559:0.0 560:0.0 561:0.0 562:0.0 563:0.0 564:0.0 565:0.0 566:0.0 567:0.0 568:0.0 569:0.0 570:0.0 571:0.2784313725490196 572:0.8392156862745098 573:0.9058823529411765 574:0.1607843137254902 575:0.0 576:0.0 577:0.0 578:0.0 579:0.0 580:0.0 581:0.0 582:0.0 583:0.0 584:0.0 585:0.0 586:0.0 587:0.0 588:0.0 589:0.0 590:0.0 591:0.0 592:0.0 593:0.0 594:0.0 595:0.0 596:0.0 597:0.0 598:0.0 599:0.6549019607843137 600:0.9921568627450981 601:0.8823529411764706 602:0.12941176470588237 603:0.0 604:0.0 605:0.0 606:0.0 607:0.0 608:0.0 609:0.0 610:0.0 611:0.0 612:0.0 613:0.0 614:0.0 615:0.0 616:0.0 617:0.0 618:0.0 619:0.0 620:0.0 621:0.0 622:0.0 623:0.0 624:0.0 625:0.0 626:0.2823529411764706 627:0.803921568627451 628:0.8117647058823529 629:0.054901960784313725 630:0.0 631:0.0 632:0.0 633:0.0 634:0.0 635:0.0 636:0.0 637:0.0 638:0.0 639:0.0 640:0.0 641:0.0 642:0.0 643:0.0 644:0.0 645:0.0 646:0.0 647:0.0 648:0.0 649:0.0 650:0.0 651:0.0 652:0.0 653:0.11764705882352941 654:0.9764705882352941 655:0.9137254901960784 656:0.19215686274509805 657:0.0 658:0.0 659:0.0 660:0.0 661:0.0 662:0.0 663:0.0 664:0.0 665:0.0 666:0.0 667:0.0 668:0.0 669:0.0 670:0.0 671:0.0 672:0.0 673:0.0 674:0.0 675:0.0 676:0.0 677:0.0 678:0.0 679:0.0 680:0.0 681:0.12549019607843137 682:0.9921568627450981 683:0.34901960784313724 684:0.0 685:0.0 686:0.0 687:0.0 688:0.0 689:0.0 690:0.0 691:0.0 692:0.0 693:0.0 694:0.0 695:0.0 696:0.0 697:0.0 698:0.0 699:0.0 700:0.0 701:0.0 702:0.0 703:0.0 704:0.0 705:0.0 706:0.0 707:0.0 708:0.0 709:0.0 710:0.0 711:0.0 712:0.0 713:0.0 714:0.0 715:0.0 716:0.0 717:0.0 718:0.0 719:0.0 720:0.0 721:0.0 722:0.0 723:0.0 724:0.0 725:0.0 726:0.0 727:0.0 728:0.0 729:0.0 730:0.0 731:0.0 732:0.0 733:0.0 734:0.0 735:0.0 736:0.0 737:0.0 738:0.0 739:0.0 740:0.0 741:0.0 742:0.0 743:0.0 744:0.0 745:0.0 746:0.0 747:0.0 748:0.0 749:0.0 750:0.0 751:0.0 752:0.0 753:0.0 754:0.0 755:0.0 756:0.0 757:0.0 758:0.0 759:0.0 760:0.0 761:0.0 762:0.0 763:0.0 764:0.0 765:0.0 766:0.0 767:0.0 768:0.0 769:0.0 770:0.0 771:0.0 772:0.0 773:0.0 774:0.0 775:0.0 776:0.0 777:0.0 778:0.0 779:0.0 780:0.0 781:0.0 782:0.0 783:0.0 784:0.0
0.00021261659388187334 1:0.0 2:0.0 3:0.0 4:0.0 5:0.0 6:0.0 7:0.0 8:0.0 9:0.0 10:0.0 11:0.0 12:0.0 13:0.0 14:0.0 15:0.0 16:0.0 17:0.0 18:0.0 19:0.0 20:0.0 21:0.0 22:0.0 23:0.0 24:0.0 25:0.0 26:0.0 27:0.0 28:0.0 29:0.0 30:0.0 31:0.0 32:0.0 33:0.0 34:0.0 35:0.0 36:0.0 37:0.0 38:0.0 39:0.0 40:0.0 41:0.0 42:0.0 43:0.0 44:0.0 45:0.0 46:0.0 47:0.0 48:0.0 49:0.0 50:0.0 51:0.0 52:0.0 53:0.0 54:0.0 55:0.0 56:0.0 57:0.0 58:0.0 59:0.0 60:0.0 61:0.0 62:0.0 63:0.0 64:0.0 65:0.0 66:0.0 67:0.0 68:0.0 69:0.0 70:0.0 71:0.0 72:0.0 73:0.0 74:0.0 75:0.0 76:0.0 77:0.0 78:0.0 79:0.0 80:0.0 81:0.0 82:0.0 83:0.0 84:0.0 85:0.0 86:0.0 87:0.0 88:0.0 89:0.0 90:0.0 91:0.0 92:0.0 93:0.0 94:0.0 95:0.0 96:0.0 97:0.0 98:0.0 99:0.0 100:0.0 101:0.0 102:0.0 103:0.0 104:0.0 105:0.0 106:0.0 107:0.0 108:0.0 109:0.0 110:0.0 111:0.0 112:0.0 113:0.0 114:0.0 115:0.0 116:0.0 117:0.0 118:0.0 119:0.0 120:0.0 121:0.0 122:0.0 123:0.0 124:0.0 125:0.11372549019607843 126:0.3333333333333333 127:1.0 128:0.5450980392156862 129:0.0 130:0.0 131:0.0 132:0.0 133:0.0 134:0.0 135:0.0 136:0.0 137:0.0 138:0.0 139:0.0 140:0.0 141:0.0 142:0.0 143:0.0 144:0.0 145:0.0 146:0.0 147:0.0 148:0.0 149:0.0 150:0.0 151:0.0 152:0.0 153:0.7725490196078432 154:0.984313725490196 155:0.9921568627450981 156:0.984313725490196 157:0.0 158:0.0 159:0.0 160:0.0 161:0.0 162:0.0 163:0.0 164:0.0 165:0.0 166:0.0 167:0.0 168:0.0 169:0.0 170:0.0 171:0.0 172:0.0 173:0.0 174:0.0 175:0.0 176:0.0 177:0.0 178:0.0 179:0.0 180:0.0 181:0.996078431372549 182:0.9921568627450981 183:0.996078431372549 184:0.9921568627450981 185:0.0 186:0.0 187:0.0 188:0.0 189:0.0 190:0.0 191:0.0 192:0.0 193:0.0 194:0.0 195:0.0 196:0.0 197:0.0 198:0.0 199:0.0 200:0.0 201:0.0 202:0.0 203:0.0 204:0.0 205:0.0 206:0.0 207:0.0 208:0.0 209:0.9921568627450981 210:0.984313725490196 211:0.9921568627450981 212:0.984313725490196 213:0.0 214:0.0 215:0.0 216:0.0 217:0.0 218:0.0 219:0.0 220:0.0 221:0.0 222:0.0 223:0.0 224:0.0 225:0.0 226:0.0 227:0.0 228:0.0 229:0.0 230:0.0 231:0.0 232:0.0 233:0.0 234:0.0 235:0.0 236:0.0 237:0.996078431372549 238:0.9921568627450981 239:0.996078431372549 240:0.9921568627450981 241:0.0 242:0.0 243:0.0 244:0.0 245:0.0 246:0.0 247:0.0 248:0.0 249:0.0 250:0.0 251:0.0 252:0.0 253:0.0 254:0.0 255:0.0 256:0.0 257:0.0 258:0.0 259:0.0 260:0.0 261:0.0 262:0.0 263:0.0 264:0.0 265:0.9921568627450981 266:0.984313725490196 267:0.9921568627450981 268:0.5411764705882353 269:0.0 270:0.0 271:0.0 272:0.0 273:0.0 274:0.0 275:0.0 276:0.0 277:0.0 278:0.0 279:0.0 280:0.0 281:0.0 282:0.0 283:0.0 284:0.0 285:0.0 286:0.0 287:0.0 288:0.0 289:0.0 290:0.0 291:0.0 292:0.0 293:0.996078431372549 294:0.9921568627450981 295:0.996078431372549 296:0.7686274509803922 297:0.0 298:0.0 299:0.0 300:0.0 301:0.0 302:0.0 303:0.0 304:0.0 305:0.0 306:0.0 307:0.0 308:0.0 309:0.0 310:0.0 311:0.0 312:0.0 313:0.0 314:0.0 315:0.0 316:0.0 317:0.0 318:0.0 319:0.0 320:0.0 321:0.9921568627450981 322:0.984313725490196 323:0.9921568627450981 324:0.7686274509803922 325:0.0 326:0.0 327:0.0 328:0.0 329:0.0 330:0.0 331:0.0 332:0.0 333:0.0 334:0.0 335:0.0 336:0.0 337:0.0 338:0.0 339:0.0 340:0.0 341:0.0 342:0.0 343:0.0 344:0.0 345:0.0 346:0.0 347:0.0 348:0.0 349:0.996078431372549 350:0.9921568627450981 351:0.996078431372549 352:0.32941176470588235 353:0.0 354:0.0 355:0.0 356:0.0 357:0.0 358:0.0 359:0.0 360:0.0 361:0.0 362:0.0 363:0.0 364:0.0 365:0.0 366:0.0 367:0.0 368:0.0 369:0.0 370:0.0 371:0.0 372:0.0 373:0.0 374:0.0 375:0.0 376:0.0 377:0.9921568627450981 378:0.984313725490196 379:0.9921568627450981 380:0.7686274509803922 381:0.0 382:0.0 383:0.0 384:0.0 385:0.0 386:0.0 387:0.0 388:0.0 389:0.0 390:0.0 391:0.0 392:0.0 393:0.0 394:0.0 395:0.0 396:0.0 397:0.0 398:0.0 399:0.0 400:0.0 401:0.0 402:0.0 403:0.0 404:0.0 405:0.996078431372549 406:0.9921568627450981 407:0.996078431372549 408:0.9921568627450981 409:0.0 410:0.0 411:0.0 412:0.0 413:0.0 414:0.0 415:0.0 416:0.0 417:0.0 418:0.0 419:0.0 420:0.0 421:0.0 422:0.0 423:0.0 424:0.0 425:0.0 426:0.0 427:0.0 428:0.0 429:0.0 430:0.0 431:0.0 432:0.0 433:0.9921568627450981 434:0.984313725490196 435:0.9921568627450981 436:0.984313725490196 437:0.0 438:0.0 439:0.0 440:0.0 441:0.0 442:0.0 443:0.0 444:0.0 445:0.0 446:0.0 447:0.0 448:0.0 449:0.0 450:0.0 451:0.0 452:0.0 453:0.0 454:0.0 455:0.0 456:0.0 457:0.0 458:0.0 459:0.0 460:0.0 461:0.996078431372549 462:0.9921568627450981 463:0.996078431372549 464:0.9921568627450981 465:0.0 466:0.0 467:0.0 468:0.0 469:0.0 470:0.0 471:0.0 472:0.0 473:0.0 474:0.0 475:0.0 476:0.0 477:0.0 478:0.0 479:0.0 480:0.0 481:0.0 482:0.0 483:0.0 484:0.0 485:0.0 486:0.0 487:0.0 488:0.0 489:0.9921568627450981 490:0.984313725490196 491:0.9921568627450981 492:0.984313725490196 493:0.0 494:0.0 495:0.0 496:0.0 497:0.0 498:0.0 499:0.0 500:0.0 501:0.0 502:0.0 503:0.0 504:0.0 505:0.0 506:0.0 507:0.0 508:0.0 509:0.0 510:0.0 511:0.0 512:0.0 513:0.0 514:0.0 515:0.0 516:0.0 517:0.996078431372549 518:0.9921568627450981 519:0.996078431372549 520:0.9921568627450981 521:0.0 522:0.0 523:0.0 524:0.0 525:0.0 526:0.0 527:0.0 528:0.0 529:0.0 530:0.0 531:0.0 532:0.0 533:0.0 534:0.0 535:0.0 536:0.0 537:0.0 538:0.0 539:0.0 540:0.0 541:0.0 542:0.0 543:0.0 544:0.0 545:0.9921568627450981 546:0.984313725490196 547:0.9921568627450981 548:0.984313725490196 549:0.0 550:0.0 551:0.0 552:0.0 553:0.0 554:0.0 555:0.0 556:0.0 557:0.0 558:0.0 559:0.0 560:0.0 561:0.0 562:0.0 563:0.0 564:0.0 565:0.0 566:0.0 567:0.0 568:0.0 569:0.0 570:0.0 571:0.0 572:0.0 573:0.996078431372549 574:0.9921568627450981 575:0.996078431372549 576:0.9921568627450981 577:0.0 578:0.0 579:0.0 580:0.0 581:0.0 582:0.0 583:0.0 584:0.0 585:0.0 586:0.0 587:0.0 588:0.0 589:0.0 590:0.0 591:0.0 592:0.0 593:0.0 594:0.0 595:0.0 596:0.0 597:0.0 598:0.0 599:0.0 600:0.0 601:0.9921568627450981 602:0.984313725490196 603:0.9921568627450981 604:0.984313725490196 605:0.0 606:0.0 607:0.0 608:0.0 609:0.0 610:0.0 611:0.0 612:0.0 613:0.0 614:0.0 615:0.0 616:0.0 617:0.0 618:0.0 619:0.0 620:0.0 621:0.0 622:0.0 623:0.0 624:0.0 625:0.0 626:0.0 627:0.0 628:0.0 629:0.2235294117647059 630:0.8823529411764706 631:0.996078431372549 632:0.9921568627450981 633:0.0 634:0.0 635:0.0 636:0.0 637:0.0 638:0.0 639:0.0 640:0.0 641:0.0 642:0.0 643:0.0 644:0.0 645:0.0 646:0.0 647:0.0 648:0.0 649:0.0 650:0.0 651:0.0 652:0.0 653:0.0 654:0.0 655:0.0 656:0.0 657:0.0 658:0.2196078431372549 659:0.9921568627450981 660:0.984313725490196 661:0.0 662:0.0 663:0.0 664:0.0 665:0.0 666:0.0 667:0.0 668:0.0 669:0.0 670:0.0 671:0.0 672:0.0 673:0.0 674:0.0 675:0.0 676:0.0 677:0.0 678:0.0 679:0.0 680:0.0 681:0.0 682:0.0 683:0.0 684:0.0 685:0.0 686:0.0 687:0.0 688:0.0 689:0.0 690:0.0 691:0.0 692:0.0 693:0.0 694:0.0 695:0.0 696:0.0 697:0.0 698:0.0 699:0.0 700:0.0 701:0.0 702:0.0 703:0.0 704:0.0 705:0.0 706:0.0 707:0.0 708:0.0 709:0.0 710:0.0 711:0.0 712:0.0 713:0.0 714:0.0 715:0.0 716:0.0 717:0.0 718:0.0 719:0.0 720:0.0 721:0.0 722:0.0 723:0.0 724:0.0 725:0.0 726:0.0 727:0.0 728:0.0 729:0.0 730:0.0 731:0.0 732:0.0 733:0.0 734:0.0 735:0.0 736:0.0 737:0.0 738:0.0 739:0.0 740:0.0 741:0.0 742:0.0 743:0.0 744:0.0 745:0.0 746:0.0 747:0.0 748:0.0 749:0.0 750:0.0 751:0.0 752:0.0 753:0.0 754:0.0 755:0.0 756:0.0 757:0.0 758:0.0 759:0.0 760:0.0 761:0.0 762:0.0 763:0.0 764:0.0 765:0.0 766:0.0 767:0.0 768:0.0 769:0.0 770:0.0 771:0.0 772:0.0 773:0.0 774:0.0 775:0.0 776:0.0 777:0.0 778:0.0 779:0.0 780:0.0 781:0.0 782:0.0 783:0.0 784:0.0
0.01294088291622432 1:0.0 2:0.0 3:0.0 4:0.0 5:0.0 6:0.0 7:0.0 8:0.0 9:0.0 10:0.0 11:0.0 12:0.0 13:0.0 14:0.0 15:0.0 16:0.0 17:0.0 18:0.0 19:0.0 20:0.0 21:0.0 22:0.0 23:0.0 24:0.0 25:0.0 26:0.0 27:0.0 28:0.0 29:0.0 30:0.0 31:0.0 32:0.0 33:0.0 34:0.0 35:0.0 36:0.0 37:0.0 38:0.0 39:0.0 40:0.0 41:0.0 42:0.0 43:0.0 44:0.0 45:0.0 46:0.0 47:0.0 48:0.0 49:0.0 50:0.0 51:0.0 52:0.0 53:0.0 54:0.0 55:0.0 56:0.0 57:0.0 58:0.0 59:0.0 60:0.0 61:0.0 62:0.0 63:0.0 64:0.0 65:0.0 66:0.0 67:0.0 68:0.0 69:0.0 70:0.0 71:0.0 72:0.0 73:0.0 74:0.0 75:0.0 76:0.0 77:0.0 78:0.0 79:0.0 80:0.0 81:0.0 82:0.0 83:0.0 84:0.0 85:0.0 86:0.0 87:0.0 88:0.0 89:0.0 90:0.0 91:0.0 92:0.0 93:0.0 94:0.0 95:0.0 96:0.0 97:0.0 98:0.0 99:0.0 100:0.30980392156862746 101:0.996078431372549 102:0.996078431372549 103:0.0 104:0.0 105:0.0 106:0.0 107:0.0 108:0.0 109:0.0 110:0.0 111:0.0 112:0.0 113:0.0 114:0.0 115:0.0 116:0.0 117:0.0 118:0.0 119:0.0 120:0.0 121:0.0 122:0.0 123:0.0 124:0.0 125:0.0 126:0.0 127:0.0 128:0.3411764705882353 129:0.996078431372549 130:0.996078431372549 131:0.0 132:0.0 133:0.0 134:0.0 135:0.0 136:0.0 137:0.0 138:0.0 139:0.0 140:0.0 141:0.0 142:0.0 143:0.0 144:0.0 145:0.0 146:0.0 147:0.0 148:0.0 149:0.0 150:0.0 151:0.0 152:0.0 153:0.0 154:0.0 155:0.17254901960784313 156:0.9019607843137255 157:0.996078431372549 158:0.996078431372549 159:0.0 160:0.0 161:0.0 162:0.0 163:0.0 164:0.0 165:0.0 166:0.0 167:0.0 168:0.0 169:0.0 170:0.0 171:0.0 172:0.0 173:0.0 174:0.0 175:0.0 176:0.0 177:0.0 178:0.0 179:0.0 180:0.0 181:0.0 182:0.0392156862745098 183:0.6901960784313725 184:0.996078431372549 185:0.996078431372549 186:0.788235294117647 187:0.0 188:0.0 189:0.0 190:0.0 191:0.0 192:0.0 193:0.0 194:0.0 195:0.0 196:0.0 197:0.0 198:0.0 199:0.0 200:0.0 201:0.0 202:0.0 203:0.0 204:0.0 205:0.0 206:0.0 207:0.0 208:0.0 209:0.0 210:0.5254901960784314 211:0.996078431372549 212:0.996078431372549 213:0.996078431372549 214:0.3176470588235294 215:0.0 216:0.0 217:0.0 218:0.0 219:0.0 220:0.0 221:0.0 222:0.0 223:0.0 224:0.0 225:0.0 226:0.0 227:0.0 228:0.0 229:0.0 230:0.0 231:0.0 232:0.0 233:0.0 234:0.0 235:0.0 236:0.0 237:0.09019607843137255 238:0.8549019607843137 239:0.996078431372549 240:0.996078431372549 241:0.996078431372549 242:0.23137254901960785 243:0.0 244:0.0 245:0.0 246:0.0 247:0.0 248:0.0 249:0.0 250:0.0 251:0.0 252:0.0 253:0.0 254:0.0 255:0.0 256:0.0 257:0.0 258:0.0 259:0.0 260:0.0 261:0.0 262:0.0 263:0.0 264:0.01568627450980392 265:0.7254901960784313 266:0.996078431372549 267:0.996078431372549 268:0.996078431372549 269:0.8627450980392157 270:0.03529411764705882 271:0.0 272:0.0 273:0.0 274:0.0 275:0.0 276:0.0 277:0.0 278:0.0 279:0.0 280:0.0 281:0.0 282:0.0 283:0.0 284:0.0 285:0.0 286:0.0 287:0.0 288:0.0 289:0.0 290:0.0 291:0.0 292:0.5372549019607843 293:0.996078431372549 294:0.996078431372549 295:0.996078431372549 296:0.996078431372549 297:0.8392156862745098 298:0.0 299:0.0 300:0.0 301:0.0 302:0.0 303:0.0 304:0.0 305:0.0 306:0.0 307:0.0 308:0.0 309:0.0 310:0.0 311:0.0 312:0.0 313:0.0 314:0.0 315:0.0 316:0.0 317:0.0 318:0.0 319:0.0 320:0.803921568627451 321:0.996078431372549 322:0.5176470588235295 323:0.8549019607843137 324:0.996078431372549 325:0.7803921568627451 326:0.0 327:0.0 328:0.0 329:0.0 330:0.0 331:0.0 332:0.0 333:0.0 334:0.0 335:0.0 336:0.0 337:0.0 338:0.0 339:0.0 340:0.0 341:0.0 342:0.0 343:0.0 344:0.0 345:0.0 346:0.0 347:0.0 348:0.03529411764705882 349:0.22745098039215686 350:0.0 351:0.8431372549019608 352:0.996078431372549 353:0.4588235294117647 354:0.0 355:0.0 356:0.0 357:0.0 358:0.0 359:0.0 360:0.0 361:0.0 362:0.0 363:0.0 364:0.0 365:0.0 366:0.0 367:0.0 368:0.0 369:0.0 370:0.0 371:0.0 372:0.0 373:0.0 374:0.0 375:0.0 376:0.0 377:0.0 378:0.23529411764705882 379:0.996078431372549 380:0.996078431372549 381:0.4627450980392157 382:0.0 383:0.0 384:0.0 385:0.0 386:0.0 387:0.0 388:0.0 389:0.0 390:0.0 391:0.0 392:0.0 393:0.0 394:0.0 395:0.0 396:0.0 397:0.0 398:0.0 399:0.0 400:0.0 401:0.0 402:0.0 403:0.0 404:0.0 405:0.0 406:0.23137254901960785 407:0.996078431372549 408:0.996078431372549 409:0.43137254901960786 410:0.0 411:0.0 412:0.0 413:0.0 414:0.0 415:0.0 416:0.0 417:0.0 418:0.0 419:0.0 420:0.0 421:0.0 422:0.0 423:0.0 424:0.0 425:0.0 426:0.0 427:0.0 428:0.0 429:0.0 430:0.0 431:0.0 432:0.0 433:0.0 434:0.23137254901960785 435:0.996078431372549 436:0.996078431372549 437:0.07450980392156863 438:0.0 439:0.0 440:0.0 441:0.0 442:0.0 443:0.0 444:0.0 445:0.0 446:0.0 447:0.0 448:0.0 449:0.0 450:0.0 451:0.0 452:0.0 453:0.0 454:0.0 455:0.0 456:0.0 457:0.0 458:0.0 459:0.0 460:0.0 461:0.0 462:0.23137254901960785 463:0.996078431372549 464:0.996078431372549 465:0.07450980392156863 466:0.0 467:0.0 468:0.0 469:0.0 470:0.0 471:0.0 472:0.0 473:0.0 474:0.0 475:0.0 476:0.0 477:0.0 478:0.0 479:0.0 480:0.0 481:0.0 482:0.0 483:0.0 484:0.0 485:0.0 486:0.0 487:0.0 488:0.0 489:0.0 490:0.5254901960784314 491:0.996078431372549 492:0.8745098039215686 493:0.047058823529411764 494:0.0 495:0.0 496:0.0 497:0.0 498:0.0 499:0.0 500:0.0 501:0.0 502:0.0 503:0.0 504:0.0 505:0.0 506:0.0 507:0.0 508:0.0 509:0.0 510:0.0 511:0.0 512:0.0 513:0.0 514:0.0 515:0.0 516:0.0 517:0.0 518:0.615686274509804 519:0.996078431372549 520:0.6901960784313725 521:0.0 522:0.0 523:0.0 524:0.0 525:0.0 526:0.0 527:0.0 528:0.0 529:0.0 530:0.0 531:0.0 532:0.0 533:0.0 534:0.0 535:0.0 536:0.0 537:0.0 538:0.0 539:0.0 540:0.0 541:0.0 542:0.0 543:0.027450980392156862 544:0.0784313725490196 545:0.0784313725490196 546:0.6431372549019608 547:0.996078431372549 548:0.9490196078431372 549:0.43137254901960786 550:0.0196078431372549 551:0.0 552:0.0 553:0.0 554:0.0 555:0.0 556:0.0 557:0.0 558:0.0 559:0.0 560:0.0 561:0.0 562:0.0 563:0.0 564:0.0 565:0.0 566:0.0 567:0.0 568:0.0 569:0.19215686274509805 570:0.6313725490196078 571:0.7843137254901961 572:0.996078431372549 573:0.996078431372549 574:0.996078431372549 575:0.996078431372549 576:0.996078431372549 577:0.996078431372549 578:0.4980392156862745 579:0.0 580:0.0 581:0.0 582:0.0 583:0.0 584:0.0 585:0.0 586:0.0 587:0.0 588:0.0 589:0.0 590:0.0 591:0.0 592:0.0 593:0.0 594:0.0 595:0.0 596:0.3568627450980392 597:0.9686274509803922 598:0.996078431372549 599:0.996078431372549 600:0.996078431372549 601:0.996078431372549 602:1.0 603:0.996078431372549 604:0.996078431372549 605:0.8509803921568627 606:0.13333333333333333 607:0.0 608:0.0 609:0.0 610:0.0 611:0.0 612:0.0 613:0.0 614:0.0 615:0.0 616:0.0 617:0.0 618:0.0 619:0.0 620:0.0 621:0.0 622:0.0 623:0.0 624:0.23921568627450981 625:0.996078431372549 626:0.996078431372549 627:0.996078431372549 628:0.996078431372549 629:0.996078431372549 630:0.996078431372549 631:0.788235294117647 632:0.22745098039215686 633:0.10588235294117647 634:0.0 635:0.0 636:0.0 637:0.0 638:0.0 639:0.0 640:0.0 641:0.0 642:0.0 643:0.0 644:0.0 645:0.0 646:0.0 647:0.0 648:0.0 649:0.0 650:0.0 651:0.0 652:0.0 653:0.0 654:0.0 655:0.0 656:0.0 657:0.0 658:0.0 659:0.0 660:0.0 661:0.0 662:0.0 663:0.0 664:0.0 665:0.0 666:0.0 667:0.0 668:0.0 669:0.0 670:0.0 671:0.0 672:0.0 673:0.0 674:0.0 675:0.0 676:0.0 677:0.0 678:0.0 679:0.0 680:0.0 681:0.0 682:0.0 683:0.0 684:0.0 685:0.0 686:0.0 687:0.0 688:0.0 689:0.0 690:0.0 691:0.0 692:0.0 693:0.0 694:0.0 695:0.0 696:0.0 697:0.0 698:0.0 699:0.0 700:0.0 701:0.0 702:0.0 703:0.0 704:0.0 705:0.0 706:0.0 707:0.0 708:0.0 709:0.0 710:0.0 711:0.0 712:0.0 713:0.0 714:0.0 715:0.0 716:0.0 717:0.0 718:0.0 719:0.0 720:0.0 721:0.0 722:0.0 723:0.0 724:0.0 725:0.0 726:0.0 727:0.0 728:0.0 729:0.0 730:0.0 731:0.0 732:0.0 733:0.0 734:0.0 735:0.0 736:0.0 737:0.0 738:0.0 739:0.0 740:0.0 741:0.0 742:0.0 743:0.0 744:0.0 745:0.0 746:0.0 747:0.0 748:0.0 749:0.0 750:0.0 751:0.0 752:0.0 753:0.0 754:0.0 755:0.0 756:0.0 757:0.0 758:0.0 759:0.0 760:0.0 761:0.0 762:0.0 763:0.0 764:0.0 765:0.0 766:0.0 767:0.0 768:0.0 769:0.0 770:0.0 771:0.0 772:0.0 773:0.0 774:0.0 775:0.0 776:0.0 777:0.0 778:0.0 779:0.0 780:0.0 781:0.0 782:0.0 783:0.0 784:0.0
0.036786443037514875 1:0.0 2:0.0 3:0.0 4:0.0 5:0.0 6:0.0 7:0.0 8:0.0 9:0.0 10:0.0 11:0.0 12:0.0 13:0.0 14:0.0 15:0.0 16:0.0 17:0.0 18:0.0 19:0.0 20:0.0 21:0.0 22:0.0 23:0.0 24:0.0 25:0.0 26:0.0 27:0.0 28:0.0 29:0.0 30:0.0 31:0.0 32:0.0 33:0.0 34:0.0 35:0.0 36:0.0 37:0.0 38:0.0 39:0.0 40:0.0 41:0.0 42:0.0 43:0.0 44:0.0 45:0.0 46:0.0 47:0.0 48:0.0 49:0.0 50:0.0 51:0.0 52:0.0 53:0.0 54:0.0 55:0.0 56:0.0 57:0.0 58:0.0 59:0.0 60:0.0 61:0.0 62:0.0 63:0.0 64:0.0 65:0.0 66:0.0 67:0.0 68:0.0 69:0.0 70:0.0 71:0.0 72:0.0 73:0.0 74:0.0 75:0.0 76:0.0 77:0.0 78:0.0 79:0.0 80:0.0 81:0.0 82:0.0 83:0.0 84:0.0 85:0.0 86:0.0 87:0.0 88:0.0 89:0.0 90:0.0 91:0.0 92:0.0 93:0.0 94:0.0 95:0.0 96:0.0 97:0.0 98:0.0 99:0.0 100:0.0 101:0.0 102:0.0 103:0.0 104:0.0 105:0.0 106:0.0 107:0.0 108:0.0 109:0.0 110:0.0 111:0.0 112:0.0 113:0.0 114:0.0 115:0.0 116:0.0 117:0.0 118:0.0 119:0.0 120:0.0 121:0.0 122:0.0 123:0.0 124:0.4 125:0.9882352941176471 126:0.9882352941176471 127:0.1607843137254902 128:0.0 129:0.0 130:0.0 131:0.0 132:0.0 133:0.0 134:0.0 135:0.0 136:0.0 137:0.0 138:0.0 139:0.0 140:0.0 141:0.0 142:0.0 143:0.0 144:0.0 145:0.0 146:0.0 147:0.0 148:0.0 149:0.0 150:0.0 151:0.0 152:0.4 153:0.9803921568627451 154:0.9803921568627451 155:0.792156862745098 156:0.0 157:0.0 158:0.0 159:0.0 160:0.0 161:0.0 162:0.0 163:0.0 164:0.0 165:0.0 166:0.0 167:0.0 168:0.0 169:0.0 170:0.0 171:0.0 172:0.0 173:0.0 174:0.0 175:0.0 176:0.0 177:0.0 178:0.0 179:0.0 180:0.4 181:0.9803921568627451 182:0.9803921568627451 183:0.9098039215686274 184:0.3568627450980392 185:0.0 186:0.0 187:0.0 188:0.0 189:0.0 190:0.0 191:0.0 192:0.0 193:0.0 194:0.0 195:0.0 196:0.0 197:0.0 198:0.0 199:0.0 200:0.0 201:0.0 202:0.0 203:0.0 204:0.0 205:0.0 206:0.0 207:0.0 208:0.4 209:0.9803921568627451 210:0.9803921568627451 211:0.8313725490196079 212:0.11372549019607843 213:0.0 214:0.0 215:0.0 216:0.0 217:0.0 218:0.0 219:0.0 220:0.0 221:0.0 222:0.0 223:0.0 224:0.0 225:0.0 226:0.0 227:0.0 228:0.0 229:0.0 230:0.0 231:0.0 232:0.0 233:0.0 234:0.0 235:0.0 236:0.4 237:0.9882352941176471 238:0.9882352941176471 239:0.996078431372549 240:0.5882352941176471 241:0.0 242:0.0 243:0.0 244:0.0 245:0.0 246:0.0 247:0.0 248:0.0 249:0.0 250:0.0 251:0.0 252:0.0 253:0.0 254:0.0 255:0.0 256:0.0 257:0.0 258:0.0 259:0.0 260:0.0 261:0.0 262:0.0 263:0.0 264:0.4 265:0.9803921568627451 266:0.9803921568627451 267:0.9882352941176471 268:0.5843137254901961 269:0.0 270:0.0 271:0.0 272:0.0 273:0.0 274:0.0 275:0.0 276:0.0 277:0.0 278:0.0 279:0.0 280:0.0 281:0.0 282:0.0 283:0.0 284:0.0 285:0.0 286:0.0 287:0.0 288:0.0 289:0.0 290:0.0 291:0.0 292:0.4 293:0.9803921568627451 294:0.9803921568627451 295:0.9882352941176471 296:0.5843137254901961 297:0.0 298:0.0 299:0.0 300:0.0 301:0.0 302:0.0 303:0.0 304:0.0 305:0.0 306:0.0 307:0.0 308:0.0 309:0.0 310:0.0 311:0.0 312:0.0 313:0.0 314:0.0 315:0.0 316:0.0 317:0.0 318:0.0 319:0.0 320:0.4 321:0.9803921568627451 322:0.9803921568627451 323:0.9882352941176471 324:0.9058823529411765 325:0.3137254901960784 326:0.0 327:0.0 328:0.0 329:0.0 330:0.0 331:0.0 332:0.0 333:0.0 334:0.0 335:0.0 336:0.0 337:0.0 338:0.0 339:0.0 340:0.0 341:0.0 342:0.0 343:0.0 344:0.0 345:0.0 346:0.0 347:0.0 348:0.0 349:0.596078431372549 350:0.9882352941176471 351:0.996078431372549 352:0.9882352941176471 353:0.39215686274509803 354:0.0 355:0.0 356:0.0 357:0.0 358:0.0 359:0.0 360:0.0 361:0.0 362:0.0 363:0.0 364:0.0 365:0.0 366:0.0 367:0.0 368:0.0 369:0.0 370:0.0 371:0.0 372:0.0 373:0.0 374:0.0 375:0.0 376:0.0 377:0.592156862745098 378:0.9803921568627451 379:0.9882352941176471 380:0.9803921568627451 381:0.39215686274509803 382:0.0 383:0.0 384:0.0 385:0.0 386:0.0 387:0.0 388:0.0 389:0.0 390:0.0 391:0.0 392:0.0 393:0.0 394:0.0 395:0.0 396:0.0 397:0.0 398:0.0 399:0.0 400:0.0 401:0.0 402:0.0 403:0.0 404:0.0 405:0.592156862745098 406:0.9803921568627451 407:0.9882352941176471 408:0.9803921568627451 409:0.39215686274509803 410:0.0 411:0.0 412:0.0 413:0.0 414:0.0 415:0.0 416:0.0 417:0.0 418:0.0 419:0.0 420:0.0 421:0.0 422:0.0 423:0.0 424:0.0 425:0.0 426:0.0 427:0.0 428:0.0 429:0.0 430:0.0 431:0.0 432:0.0 433:0.592156862745098 434:0.9803921568627451 435:0.9882352941176471 436:0.9803921568627451 437:0.39215686274509803 438:0.0 439:0.0 440:0.0 441:0.0 442:0.0 443:0.0 444:0.0 445:0.0 446:0.0 447:0.0 448:0.0 449:0.0 450:0.0 451:0.0 452:0.0 453:0.0 454:0.0 455:0.0 456:0.0 457:0.0 458:0.0 459:0.0 460:0.0 461:0.4823529411764706 462:0.9529411764705882 463:0.996078431372549 464:0.9882352941176471 465:0.39215686274509803 466:0.0 467:0.0 468:0.0 469:0.0 470:0.0 471:0.0 472:0.0 473:0.0 474:0.0 475:0.0 476:0.0 477:0.0 478:0.0 479:0.0 480:0.0 481:0.0 482:0.0 483:0.0 484:0.0 485:0.0 486:0.0 487:0.0 488:0.0 489:0.0 490:0.792156862745098 491:0.9882352941176471 492:0.9803921568627451 493:0.39215686274509803 494:0.0 495:0.0 496:0.0 497:0.0 498:0.0 499:0.0 500:0.0 501:0.0 502:0.0 503:0.0 504:0.0 505:0.0 506:0.0 507:0.0 508:0.0 509:0.0 510:0.0 511:0.0 512:0.0 513:0.0 514:0.0 515:0.0 516:0.0 517:0.0 518:0.3137254901960784 519:0.9882352941176471 520:0.9803921568627451 521:0.7450980392156863 522:0.11764705882352941 523:0.0 524:0.0 525:0.0 526:0.0 527:0.0 528:0.0 529:0.0 530:0.0 531:0.0 532:0.0 533:0.0 534:0.0 535:0.0 536:0.0 537:0.0 538:0.0 539:0.0 540:0.0 541:0.0 542:0.0 543:0.0 544:0.0 545:0.0 546:0.0 547:0.9882352941176471 548:0.9803921568627451 549:0.9803921568627451 550:0.19215686274509805 551:0.0 552:0.0 553:0.0 554:0.0 555:0.0 556:0.0 557:0.0 558:0.0 559:0.0 560:0.0 561:0.0 562:0.0 563:0.0 564:0.0 565:0.0 566:0.0 567:0.0 568:0.0 569:0.0 570:0.0 571:0.0 572:0.0 573:0.0 574:0.0 575:1.0 576:0.9882352941176471 577:0.9882352941176471 578:0.9882352941176471 579:0.8392156862745098 580:0.12156862745098039 581:0.0 582:0.0 583:0.0 584:0.0 585:0.0 586:0.0 587:0.0 588:0.0 589:0.0 590:0.0 591:0.0 592:0.0 593:0.0 594:0.0 595:0.0 596:0.0 597:0.0 598:0.0 599:0.0 600:0.0 601:0.0 602:0.0 603:0.6705882352941176 604:0.9803921568627451 605:0.9803921568627451 606:0.9803921568627451 607:0.9882352941176471 608:0.7450980392156863 609:0.1568627450980392 610:0.0 611:0.0 612:0.0 613:0.0 614:0.0 615:0.0 616:0.0 617:0.0 618:0.0 619:0.0 620:0.0 621:0.0 622:0.0 623:0.0 624:0.0 625:0.0 626:0.0 627:0.0 628:0.0 629:0.0 630:0.0 631:0.0784313725490196 632:0.6274509803921569 633:0.9803921568627451 634:0.9803921568627451 635:0.9882352941176471 636:0.9803921568627451 637:0.39215686274509803 638:0.0 639:0.0 640:0.0 641:0.0 642:0.0 643:0.0 644:0.0 645:0.0 646:0.0 647:0.0 648:0.0 649:0.0 650:0.0 651:0.0 652:0.0 653:0.0 654:0.0 655:0.0 656:0.0 657:0.0 658:0.0 659:0.0 660:0.0784313725490196 661:0.6666666666666666 662:0.9803921568627451 663:0.8313725490196079 664:0.19215686274509805 665:0.0784313725490196 666:0.0 667:0.0 668:0.0 669:0.0 670:0.0 671:0.0 672:0.0 673:0.0 674:0.0 675:0.0 676:0.0 677:0.0 678:0.0 679:0.0 680:0.0 681:0.0 682:0.0 683:0.0 684:0.0 685:0.0 686:0.0 687:0.0 688:0.0 689:0.0 690:0.0 691:0.0 692:0.0 693:0.0 694:0.0 695:0.0 696:0.0 697:0.0 698:0.0 699:0.0 700:0.0 701:0.0 702:0.0 703:0.0 704:0.0 705:0.0 706:0.0 707:0.0 708:0.0 709:0.0 710:0.0 711:0.0 712:0.0 713:0.0 714:0.0 715:0.0 716:0.0 717:0.0 718:0.0 719:0.0 720:0.0 721:0.0 722:0.0 723:0.0 724:0.0 725:0.0 726:0.0 727:0.0 728:0.0 729:0.0 730:0.0 731:0.0 732:0.0 733:0.0 734:0.0 735:0.0 736:0.0 737:0.0 738:0.0 739:0.0 740:0.0 741:0.0 742:0.0 743:0.0 744:0.0 745:0.0 746:0.0 747:0.0 748:0.0 749:0.0 750:0.0 751:0.0 752:0.0 753:0.0 754:0.0 755:0.0 756:0.0 757:0.0 758:0.0 759:0.0 760:0.0 761:0.0 762:0.0 763:0.0 764:0.0 765:0.0 766:0.0 767:0.0 768:0.0 769:0.0 770:0.0 771:0.0 772:0.0 773:0.0 774:0.0 775:0.0 776:0.0 777:0.0 778:0.0 779:0.0 780:0.0 781:0.0 782:0.0 783:0.0 784:0.0
-0.04870607117421092 1:0.0 2:0.0 3:0.0 4:0.0 5:0.0 6:0.0 7:0.0 8:0.0 9:0.0 10:0.0 11:0.0 12:0.0 13:0.0 14:0.0 15:0.0 16:0.0 17:0.0 18:0.0 19:0.0 20:0.0 21:0.0 22:0.0 23:0.0 24:0.0 25:0.0 26:0.0 27:0.0 28:0.0 29:0.0 30:0.0 31:0.0 32:0.0 33:0.0 34:0.0 35:0.0 36:0.0 37:0.0 38:0.0 39:0.0 40:0.0 41:0.0 42:0.0 43:0.0 44:0.0 45:0.0 46:0.0 47:0.0 48:0.0 49:0.0 50:0.0 51:0.0 52:0.0 53:0.0 54:0.0 55:0.0 56:0.0 57:0.0 58:0.0 59:0.0 60:0.0 61:0.0 62:0.0 63:0.0 64:0.0 65:0.0 66:0.0 67:0.0 68:0.0 69:0.0 70:0.0 71:0.0 72:0.0 73:0.0 74:0.0 75:0.0 76:0.0 77:0.0 78:0.0 79:0.0 80:0.0 81:0.0 82:0.0 83:0.0 84:0.0 85:0.0 86:0.0 87:0.0 88:0.0 89:0.0 90:0.0 91:0.0 92:0.0 93:0.0 94:0.0 95:0.0 96:0.0 97:0.0 98:0.0 99:0.0 100:0.0 101:0.0 102:0.0 103:0.0 104:0.0 105:0.0 106:0.0 107:0.0 108:0.0 109:0.0 110:0.0 111:0.0 112:0.0 113:0.0 114:0.0 115:0.0 116:0.0 117:0.0 118:0.0 119:0.0 120:0.0 121:0.0 122:0.0 123:0.22745098039215686 124:0.611764705882353 125:0.6705882352941176 126:0.8470588235294118 127:0.611764705882353 128:0.4392156862745098 129:0.1607843137254902 130:0.0 131:0.0 132:0.0 133:0.0 134:0.0 135:0.0 136:0.0 137:0.0 138:0.0 139:0.0 140:0.0 141:0.0 142:0.0 143:0.0 144:0.0 145:0.0 146:0.0 147:0.0 148:0.0 149:0.0 150:0.09019607843137255 151:0.8705882352941177 152:0.9921568627450981 153:0.9921568627450981 154:0.9921568627450981 155:0.996078431372549 156:0.9921568627450981 157:0.9450980392156862 158:0.49019607843137253 159:0.13725490196078433 160:0.0 161:0.0 162:0.0 163:0.0 164:0.0 165:0.0 166:0.0 167:0.0 168:0.0 169:0.0 170:0.0 171:0.0 172:0.0 173:0.0 174:0.0 175:0.0 176:0.0 177:0.0 178:0.0 179:0.17254901960784313 180:0.6823529411764706 181:0.6235294117647059 182:0.3058823529411765 183:0.3058823529411765 184:0.4823529411764706 185:0.8980392156862745 186:0.9921568627450981 187:0.6078431372549019 188:0.0 189:0.0 190:0.0 191:0.0 192:0.0 193:0.0 194:0.0 195:0.0 196:0.0 197:0.0 198:0.0 199:0.0 200:0.0 201:0.0 202:0.0 203:0.0 204:0.0 205:0.0 206:0.0 207:0.0 208:0.0 209:0.0 210:0.0 211:0.0 212:0.0 213:0.6862745098039216 214:0.9921568627450981 215:0.9607843137254902 216:0.0 217:0.0 218:0.0 219:0.0 220:0.0 221:0.0 222:0.0 223:0.0 224:0.0 225:0.0 226:0.0 227:0.0 228:0.0 229:0.0 230:0.0 231:0.0 232:0.0 233:0.0 234:0.0 235:0.0 236:0.0 237:0.0 238:0.0 239:0.0 240:0.0 241:0.6862745098039216 242:0.9921568627450981 243:0.9921568627450981 244:0.0 245:0.0 246:0.0 247:0.0 248:0.0 249:0.0 250:0.0 251:0.0 252:0.0 253:0.0 254:0.0 255:0.0 256:0.0 257:0.0 258:0.0 259:0.0 260:0.0 261:0.0 262:0.0 263:0.0 264:0.0 265:0.0 266:0.0 267:0.0 268:0.0196078431372549 269:0.7607843137254902 270:0.996078431372549 271:0.6078431372549019 272:0.0 273:0.0 274:0.0 275:0.0 276:0.0 277:0.0 278:0.0 279:0.0 280:0.0 281:0.0 282:0.0 283:0.0 284:0.0 285:0.0 286:0.0 287:0.0 288:0.0 289:0.0 290:0.0 291:0.0 292:0.0 293:0.0 294:0.0 295:0.0 296:0.5764705882352941 297:0.9921568627450981 298:0.9803921568627451 299:0.26666666666666666 300:0.0 301:0.0 302:0.0 303:0.0 304:0.0 305:0.0 306:0.0 307:0.0 308:0.0 309:0.0 310:0.0 311:0.0 312:0.0 313:0.0 314:0.0 315:0.0 316:0.0 317:0.0 318:0.0 319:0.0 320:0.0 321:0.0 322:0.0 323:0.07450980392156863 324:0.8862745098039215 325:0.9921568627450981 326:0.5725490196078431 327:0.0 328:0.0 329:0.0 330:0.0 331:0.0 332:0.0 333:0.0 334:0.0 335:0.0 336:0.0 337:0.0 338:0.0 339:0.0 340:0.0 341:0.0 342:0.0 343:0.0 344:0.0 345:0.0 346:0.0 347:0.0 348:0.0 349:0.0 350:0.0 351:0.6431372549019608 352:0.9921568627450981 353:0.9411764705882353 354:0.23921568627450981 355:0.0 356:0.0 357:0.0 358:0.0 359:0.0 360:0.0 361:0.0 362:0.0 363:0.0 364:0.0 365:0.0 366:0.0 367:0.0 368:0.0 369:0.0 370:0.0 371:0.0 372:0.0 373:0.0 374:0.0 375:0.0 376:0.0 377:0.0 378:0.14901960784313725 379:0.996078431372549 380:0.9921568627450981 381:0.39215686274509803 382:0.0 383:0.0 384:0.0 385:0.0 386:0.0 387:0.0 388:0.0 389:0.0 390:0.0 391:0.0 392:0.0 393:0.0 394:0.0 395:0.0 396:0.0 397:0.0 398:0.0 399:0.0 400:0.0 401:0.0 402:0.0 403:0.0 404:0.0 405:0.09803921568627451 406:0.9058823529411765 407:1.0 408:0.592156862745098 409:0.0 410:0.0 411:0.0 412:0.0 413:0.0 414:0.0 415:0.0 416:0.0 417:0.0 418:0.0 419:0.0 420:0.0 421:0.0 422:0.0 423:0.0 424:0.0 425:0.0 426:0.0 427:0.0 428:0.0 429:0.0 430:0.0 431:0.0 432:0.0 433:0.5058823529411764 434:0.9921568627450981 435:0.9764705882352941 436:0.1411764705882353 437:0.0 438:0.0 439:0.0 440:0.0 441:0.0 442:0.0 443:0.0 444:0.0 445:0.0 446:0.0 447:0.0 448:0.0 449:0.0 450:0.0 451:0.0 452:0.0 453:0.0 454:0.0 455:0.0 456:0.0 457:0.0 458:0.0 459:0.0 460:0.3333333333333333 461:0.9686274509803922 462:0.9921568627450981 463:0.3843137254901961 464:0.0 465:0.0 466:0.0 467:0.0 468:0.0 469:0.0 470:0.0 471:0.0 472:0.0 473:0.0 474:0.0 475:0.0 476:0.0 477:0.0 478:0.0 479:0.0 480:0.0 481:0.0 482:0.0 483:0.0 484:0.0 485:0.0 486:0.0 487:0.10196078431372549 488:0.8509803921568627 489:0.9921568627450981 490:0.7254901960784313 491:0.0 492:0.0 493:0.0 494:0.0 495:0.0 496:0.0 497:0.0 498:0.0 499:0.0 500:0.0 501:0.0 502:0.0 503:0.0 504:0.0 505:0.0 506:0.0 507:0.0 508:0.0 509:0.0 510:0.0 511:0.0 512:0.0 513:0.0 514:0.0 515:0.6039215686274509 516:0.9921568627450981 517:0.8705882352941177 518:0.054901960784313725 519:0.0 520:0.0 521:0.0 522:0.0 523:0.0 524:0.0 525:0.0 526:0.0 527:0.0 528:0.0 529:0.0 530:0.0 531:0.0 532:0.0 533:0.0 534:0.0 535:0.0 536:0.0 537:0.0 538:0.0 539:0.0 540:0.0 541:0.0 542:0.23137254901960785 543:0.9372549019607843 544:0.996078431372549 545:0.2235294117647059 546:0.0 547:0.0 548:0.0 549:0.5411764705882353 550:0.6941176470588235 551:0.0 552:0.0 553:0.0 554:0.0 555:0.0 556:0.0 557:0.0 558:0.0 559:0.0 560:0.0 561:0.0 562:0.0 563:0.0 564:0.0 565:0.0 566:0.0 567:0.0 568:0.0 569:0.0 570:0.611764705882353 571:0.9921568627450981 572:0.7294117647058823 573:0.011764705882352941 574:0.0 575:0.0196078431372549 576:0.43529411764705883 577:0.9450980392156862 578:0.6588235294117647 579:0.0 580:0.0 581:0.0 582:0.0 583:0.0 584:0.0 585:0.0 586:0.0 587:0.0 588:0.0 589:0.0 590:0.0 591:0.0 592:0.0 593:0.0 594:0.0 595:0.0 596:0.0 597:0.0 598:0.7607843137254902 599:0.9921568627450981 600:0.7803921568627451 601:0.30980392156862746 602:0.30980392156862746 603:0.7607843137254902 604:0.9921568627450981 605:0.9921568627450981 606:0.19215686274509805 607:0.0 608:0.0 609:0.0 610:0.0 611:0.0 612:0.0 613:0.0 614:0.0 615:0.0 616:0.0 617:0.0 618:0.0 619:0.0 620:0.0 621:0.0 622:0.0 623:0.0 624:0.0 625:0.0 626:0.611764705882353 627:0.9921568627450981 628:0.9921568627450981 629:0.9921568627450981 630:0.9921568627450981 631:0.996078431372549 632:0.9803921568627451 633:0.4549019607843137 634:0.00784313725490196 635:0.0 636:0.0 637:0.0 638:0.0 639:0.0 640:0.0 641:0.0 642:0.0 643:0.0 644:0.0 645:0.0 646:0.0 647:0.0 648:0.0 649:0.0 650:0.0 651:0.0 652:0.0 653:0.0 654:0.23137254901960785 655:0.6078431372549019 656:0.8745098039215686 657:0.9921568627450981 658:0.6941176470588235 659:0.6078431372549019 660:0.26666666666666666 661:0.0 662:0.0 663:0.0 664:0.0 665:0.0 666:0.0 667:0.0 668:0.0 669:0.0 670:0.0 671:0.0 672:0.0 673:0.0 674:0.0 675:0.0 676:0.0 677:0.0 678:0.0 679:0.0 680:0.0 681:0.0 682:0.0 683:0.0 684:0.0 685:0.0 686:0.0 687:0.0 688:0.0 689:0.0 690:0.0 691:0.0 692:0.0 693:0.0 694:0.0 695:0.0 696:0.0 697:0.0 698:0.0 699:0.0 700:0.0 701:0.0 702:0.0 703:0.0 704:0.0 705:0.0 706:0.0 707:0.0 708:0.0 709:0.0 710:0.0 711:0.0 712:0.0 713:0.0 714:0.0 715:0.0 716:0.0 717:0.0 718:0.0 719:0.0 720:0.0 721:0.0 722:0.0 723:0.0 724:0.0 725:0.0 726:0.0 727:0.0 728:0.0 729:0.0 730:0.0 731:0.0 732:0.0 733:0.0 734:0.0 735:0.0 736:0.0 737:0.0 738:0.0 739:0.0 740:0.0 741:0.0 742:0.0 743:0.0 744:0.0 745:0.0 746:0.0 747:0.0 748:0.0 749:0.0 750:0.0 751:0.0 752:0.0 753:0.0 754:0.0 755:0.0 756:0.0 757:0.0 758:0.0 759:0.0 760:0.0 761:0.0 762:0.0 763:0.0 764:0.0 765:0.0 766:0.0 767:0.0 768:0.0 769:0.0 770:0.0 771:0.0 772:0.0 773:0.0 774:0.0 775:0.0 776:0.0 777:0.0 778:0.0 779:0.0 780:0.0 781:0.0 782:0.0 783:0.0 784:0.0
